tree
version=v4
num_class=1
num_tree_per_iteration=1
label_index=0
max_feature_idx=14
objective=lambdarank
feature_names=persona_tag avg_price_last_k_clicks preferred_brands_count session_length query_frequency brand price rating click_count is_f_assured brand_match price_gap_to_avg offer_preference_match event brand_lover
feature_infos=[0:3] [1000.47:49999.199999999997] none [1:15] [10:1000] [0:3] [35:571230] [1:5] [0:10] [0:1] [0:1] [-49873.779999999999:550325.53000000003] [0:1] [0:2] none
tree_sizes=3599 3557 3561 3570 3554 3567 3575 3573 3572 3586 3576 3582 3588 3587 3594 3584 3576 3574 3575 3574 3574 3579 3585 3585 3583 3581 3583 3603 3594 3594 3587 3586 3603 3594 3601 3593 3601 3602 3606 3601 3603 3598 3610 3608 3605 3606 3609 3618 3610 3629 3628 3634 3624 3627 3631 3632 3639 3627 3638 3643 3634 3652 3640 3646 3645 3656 3652 3655 3660 3654 3667 3658 3671 3677 3679 3682 3677 3687 3686 3680 3690 3678 3691 3701 3697 3715 3709 3725 3726 3713 3719 3722 3724 3718 3725 3715 3732 3705 3735 3720 3719 3720 3714 3721 3717 3725 3743 3712 3739 3737 3742 3744 3750 3759 3513 3291 3058 2823 2357 2249 2242 2007 1894 1655 1542 1423 1314 1195 1078 963 969 966 849 615 617 616 613 613 499 493 501 500 496 383 381 382 379 381 381 380 382 384 373 384

Tree=0
num_leaves=31
num_cat=0
split_feature=8 8 8 6 6 9 9 6 6 1 4 6 5 6 7 5 7 6 11 6 6 6 6 6 6 0 7 11 3 6
split_gain=180.922 7.42903 0.0321505 0.0271829 0.00332489 0.00508254 0.00230782 0.0019872 0.00460352 0.00188565 0.00211179 0.00152381 0.0019972 0.00150899 0.00143491 0.00142761 0.00119506 0.00119357 0.00114394 0.00110124 0.00109376 0.000924702 0.000893719 0.00615796 0.000886552 0.00101117 0.00097176 0.000848383 0.000851605 0.000739162
threshold=5.5000000000000009 2.5000000000000004 1.0000000180025095e-35 375.50000000000006 24616.000000000004 1.0000000180025095e-35 1.0000000180025095e-35 599.50000000000011 919.50000000000011 28415.695000000003 571.50000000000011 920.50000000000011 2.5000000000000004 82.500000000000014 3.8500000000000001 1.0000000180025095e-35 2.7500000000000004 299.50000000000006 -29636.189999999999 295.50000000000006 791.00000000000011 621.50000000000011 1191.5000000000002 673.00000000000011 430.50000000000006 1.5000000000000002 3.1500000000000008 -38262.769999999997 9.5000000000000018 533.00000000000011
decision_type=2 2 2 2 2 2 2 2 2 2 2 2 2 2 2 2 2 2 2 2 2 2 2 2 2 2 2 2 2 2
left_child=1 2 -1 9 6 -6 7 14 20 10 16 12 -10 -11 24 -8 17 -3 -16 -4 21 -9 23 -17 26 29 27 -5 -29 -26
right_child=-2 3 19 4 5 -7 15 8 11 13 -12 -13 -14 -15 18 22 -18 -19 -20 -21 -22 -23 -24 -25 25 -27 -28 28 -30 -31
leaf_value=-0.09999999999999995 0.10000000000000001 -0.057089886267781546 -0.097090357245042794 -0.056330167597186433 -0.036779108267973232 -0.04822526889739804 -0.038300383710596915 -0.03812299294966795 -0.06819822469486958 -0.048883965925862444 -0.055820608807773314 -0.048922722034729166 -0.050706073922160505 -0.056374195899064318 -0.051396007172169189 -0.046970820557064086 -0.051050349225888914 -0.050734373701014218 -0.047970108659438591 -0.095459227115189296 -0.044498819171015717 -0.047121436644457448 -0.049355437643942429 -0.02961339338639922 -0.049439788057590535 -0.048273691440736739 -0.056211618307438704 -0.049495865208923844 -0.054544185200059762 -0.052433889093226438
leaf_weight=6.0683966527140027 25.591032449898194 0.18821387062052908 1.1323562983598083 0.065268334015854634 0.15935859578894529 0.2477827312250156 0.054021448318963716 0.029192924004746934 0.023476028101868329 0.073547282459912711 0.45504348959366314 3.2561762751502101 0.053521532827289775 0.78427045177522814 0.28042789074970675 0.81746478904096853 1.0218170457374069 0.12160191406292142 1.8586974555291815 12.007870957706471 0.71668429001874745 1.2964667012711286 0.23579100429196842 0.054505253305251244 0.46829824163432909 0.80293837276258273 0.099394091244903393 0.50542256183688961 0.10007953078456922 0.36820799222914502
leaf_count=9164 45310 764 2763 270 722 3 246 134 95 34 1681 6817 36 3214 842 228 1409 293 1302 15477 1630 2199 197 255 1090 1826 410 539 417 673
internal_value=-2.41877e-09 -0.0767433 -0.0969899 -0.0492345 -0.0481828 -0.0437451 -0.0483458 -0.0485926 -0.0479418 -0.0538051 -0.05288 -0.0490871 -0.0560393 -0.055732 -0.0493618 -0.0462373 -0.0518751 -0.0545954 -0.0484192 -0.0955998 -0.0460725 -0.0469233 -0.0466244 -0.0458858 -0.0501985 -0.0495411 -0.0515978 -0.0509141 -0.0503303 -0.0507577
internal_weight=58.9373 33.3463 19.2086 14.1377 11.4932 0.407141 11.086 9.92425 5.37552 2.64449 1.78668 3.33317 0.0769976 0.857818 4.54873 1.16178 1.33163 0.309816 2.13913 13.1402 2.04234 1.32566 1.10776 0.87197 2.40961 1.63944 0.770165 0.67077 0.605502 0.836506
internal_count=100040 54730 27404 27326 19931 725 19206 18280 10911 7395 4147 6948 131 3248 7369 926 2466 1057 2144 18240 3963 2333 680 483 5225 3589 1636 1226 956 1763
is_linear=0
shrinkage=0.05


Tree=1
num_leaves=31
num_cat=0
split_feature=8 8 6 6 3 5 1 4 7 7 6 7 1 1 6 4 6 6 0 3 4 5 6 13 8 6 6 9 6 6
split_gain=262.806 0.00469512 0.00585277 0.0406333 0.0182902 0.0100092 0.00656423 0.00484082 0.00435259 0.00350751 0.00347354 0.00769134 0.00320619 0.0060599 0.00275528 0.00346961 0.000333927 0.00277271 0.00250311 0.00186333 0.00174755 0.00175965 0.00239038 0.000325406 5.62526e-05 4.57122e-05 3.63616e-05 2.23796e-05 8.82554e-06 8.61533e-06
threshold=5.5000000000000009 2.5000000000000004 996.00000000000011 999.50000000000011 6.5000000000000009 1.5000000000000002 15845.85 818.50000000000011 4.8500000000000005 1.7500000000000002 1199.5000000000002 1.1500000000000001 16237.475000000002 44792.935000000005 1198.5000000000002 219.50000000000003 599.50000000000011 577.50000000000011 1.5000000000000002 6.5000000000000009 635.50000000000011 2.5000000000000004 584.50000000000011 1.5000000000000002 1.0000000180025095e-35 24616.000000000004 375.50000000000006 1.0000000180025095e-35 919.50000000000011 920.50000000000011
decision_type=2 2 2 2 2 2 2 2 2 2 2 2 2 2 2 2 2 2 2 2 2 2 2 2 2 2 2 2 2 2
left_child=1 24 16 4 5 6 -4 -7 -6 -8 11 -5 -11 -14 -13 -16 17 26 19 -19 21 22 -21 -23 -1 -12 -3 28 -18 -30
right_child=-2 2 3 10 8 7 9 -9 -10 12 25 14 13 -15 15 -17 27 18 -20 20 -22 23 -24 -25 -26 -27 -28 -29 29 -31
leaf_value=-0.090967021150571939 0.091941310851207769 -0.092821037450109431 -0.093188751394015418 -0.074144958810870187 -0.093187289156168626 -0.093182768361677382 -0.059836323280025749 -0.074836401101361194 -0.078777477307721111 -0.061665423304286954 -0.093088536257240007 -0.09311347267576596 -0.093247491475234215 -0.067204219063892776 -0.077352768832261512 -0.093081726943927995 -0.093220919656750334 -0.092977715690953311 -0.093105985377155781 -0.082828674972902389 -0.092969459367318638 -0.082710883688158168 -0.092982188043407452 -0.077820929092230248 -0.091134581332777839 -0.09360723820510447 -0.093030397692053055 -0.093764951953313982 -0.09247920218468407 -0.093082064254271998
leaf_weight=7.8922149387653944 38.941276518628001 4.4449725312879327 0.024329249339642867 0.075043224205728509 0.21660008712206036 0.074468034203164279 0.12357770325616002 0.069521798286587 0.069130363932345062 0.056092772632837296 3.2534513542195787 0.43780187505763024 0.035153709759470075 0.06126181996660307 0.071535972820129246 0.068761562462896109 2.4786266491282731 0.14763236977159866 0.42495149048045278 0.1211827052757144 0.085227195173501968 0.077272224938496947 0.11111753864679486 0.06078382337000221 13.71022487292066 0.48853313899599005 3.8879761903081089 0.17836928070755664 0.075196293822955229 0.27966542553622276
leaf_count=9164 45310 7395 39 31 347 119 21 22 21 1 5252 705 56 9 25 111 3963 242 688 17 140 36 182 9 18240 725 6320 266 131 453
internal_value=9.8603e-09 -0.0915665 -0.0921753 -0.0907545 -0.0798316 -0.0734861 -0.0682911 -0.0843247 -0.0897009 -0.066097 -0.092569 -0.0892045 -0.0711701 -0.0766998 -0.0911594 -0.0850617 -0.0927638 -0.0926165 -0.0901667 -0.088096 -0.0865141 -0.0850286 -0.0876855 -0.0805579 -0.0910734 -0.0931563 -0.0929187 -0.0932217 -0.0931875 -0.0929543
internal_weight=78.042 39.1007 17.4982 5.12526 0.730136 0.444405 0.300415 0.14399 0.28573 0.276086 4.39513 0.653143 0.152508 0.0964155 0.578099 0.140298 12.373 9.36112 1.02817 0.603216 0.455583 0.370356 0.2323 0.138056 21.6024 3.74198 8.33295 3.01186 2.83349 0.354862
internal_count=100040 54730 27326 7484 635 267 126 141 368 87 6849 872 66 65 841 136 19842 15029 1314 626 384 244 199 45 27404 5977 13715 4813 4547 584
is_linear=0
shrinkage=0.05


Tree=2
num_leaves=31
num_cat=0
split_feature=8 6 6 8 3 5 4 1 7 7 8 6 3 0 4 8 6 6 6 5 7 7 3 1 8 7 8 8 4 6
split_gain=221.154 0.00318975 0.0251349 0.0289513 0.0222255 0.0118836 0.00880083 0.00677041 0.00487104 0.0155286 0.0036941 0.00203511 0.00816724 0.0125855 0.0110251 0.0022095 0.000741328 0.00768902 0.00213987 0.00506163 0.00476152 0.00580202 0.000835956 0.00113955 0.000178595 0.000109497 5.39465e-05 4.7228e-05 4.46781e-05 3.07202e-05
threshold=5.5000000000000009 996.00000000000011 999.50000000000011 2.5000000000000004 8.5000000000000018 1.5000000000000002 818.50000000000011 13691.420000000002 1.7500000000000002 4.6500000000000012 2.5000000000000004 1199.5000000000002 12.500000000000002 2.5000000000000004 278.50000000000006 2.5000000000000004 577.50000000000011 584.50000000000011 599.50000000000011 2.5000000000000004 2.5500000000000003 2.2500000000000004 13.500000000000002 26299.515000000003 2.5000000000000004 4.6500000000000012 2.5000000000000004 1.5000000000000002 330.50000000000006 577.50000000000011
decision_type=2 2 2 2 2 2 2 2 2 2 2 2 2 2 2 2 2 2 2 2 2 2 2 2 2 2 2 2 2 2
left_child=1 10 3 25 5 7 -7 -5 -9 -10 29 12 24 26 -15 -13 -12 22 19 -19 21 -21 23 -18 27 -3 -14 -4 -29 -1
right_child=-2 2 11 4 -6 6 -8 8 9 -11 16 15 13 14 -16 -17 17 18 -20 20 -22 -23 -24 -25 -26 -27 -28 28 -30 -31
leaf_value=-0.084178251264479642 0.084853716888062869 -0.084184194397178544 -0.084171785194794096 -0.085896219929159717 -0.085915450250310582 -0.085888607693401078 -0.061740650181619942 -0.048990088593951875 -0.085999616076315899 -0.054008075358325303 -0.085673254466896956 -0.084188812003388791 -0.084181570363305855 -0.057037697443345275 -0.084812372409834871 -0.085862405244037321 -0.085857681407412484 -0.085774177709379534 -0.085913330808895794 -0.085810731250262326 -0.085849184520747315 -0.06560022274412286 -0.067902208201266245 -0.072379934949475158 -0.085862277080115304 -0.085583171567587615 -0.085884908221265682 -0.085480160661423277 -0.084243940608460868 -0.084324801315044398
leaf_weight=11.164077995228586 38.491905285976827 0.45522869296837487 0.3949880301952351 0.022224039945285767 0.16047655639704317 0.091420062468387187 0.06424834905192256 0.11234947922639549 0.050492447975557297 0.1524789672694169 7.7509082709439081 4.6589912326890026 0.12233602686319489 0.11007413105107844 0.052900175796821713 3.4196265519713052 0.021678357094060963 0.53380317910341579 2.7373517454252578 0.052130509167909622 0.10104905744083226 0.11138890951406211 0.051398782234173268 0.056712614255957305 0.39511239767307416 0.20190242194803432 0.074970069865230471 0.18751410418190062 0.11977065727114677 5.2611553989117956
leaf_count=13945 45310 569 486 39 281 160 28 24 88 15 13715 5812 152 23 76 5977 38 943 4813 92 178 33 10 20 691 73 131 74 158 6086
internal_value=-3.14864e-09 -0.084422 -0.0836946 -0.0772028 -0.0697525 -0.0644935 -0.0759221 -0.0592229 -0.057343 -0.0619665 -0.0847054 -0.084587 -0.0828674 -0.0763355 -0.0660531 -0.0848972 -0.0853962 -0.0848103 -0.085249 -0.0829714 -0.0773164 -0.0720434 -0.0728578 -0.0761071 -0.0850119 -0.084614 -0.0848288 -0.0845334 -0.0849983 -0.0842252
internal_weight=77.1807 38.6888 10.8471 1.31082 0.65369 0.493213 0.155668 0.337545 0.315321 0.202971 27.8417 9.53628 1.45767 0.36028 0.162974 8.07862 11.4164 3.66551 3.53572 0.798372 0.264568 0.163519 0.12979 0.078391 1.09739 0.657131 0.197306 0.702273 0.307285 16.4252
internal_count=100040 54730 14857 1277 635 354 188 166 127 103 39873 13580 1791 382 99 11789 19842 6127 6059 1246 303 125 68 58 1409 642 283 718 232 20031
is_linear=0
shrinkage=0.05


Tree=3
num_leaves=31
num_cat=0
split_feature=8 6 6 8 3 5 1 4 12 7 11 8 6 3 7 6 7 8 6 6 6 5 13 7 1 3 10 7 8 6
split_gain=195.074 0.00255289 0.0205962 0.0270474 0.019809 0.0144958 0.0066092 0.00526883 0.00461276 0.00881415 0.00227697 0.00204339 0.00160796 0.00702047 0.0120834 0.00508569 0.00530328 0.00146774 0.000816693 0.00865381 0.00203046 0.00501442 0.00487867 0.00452537 0.00120306 0.000822285 0.00183505 0.000235673 0.000147313 4.51499e-05
threshold=5.5000000000000009 996.00000000000011 999.50000000000011 2.5000000000000004 8.5000000000000018 1.5000000000000002 13691.420000000002 818.50000000000011 1.0000000180025095e-35 4.6500000000000012 -18630.914999999997 2.5000000000000004 1199.5000000000002 12.500000000000002 1.1500000000000001 1198.5000000000002 4.1500000000000012 2.5000000000000004 577.50000000000011 584.50000000000011 599.50000000000011 2.5000000000000004 1.0000000180025095e-35 2.5500000000000003 47074.985000000008 13.500000000000002 1.0000000180025095e-35 4.6500000000000012 1.5000000000000002 577.50000000000011
decision_type=2 2 2 2 2 2 2 2 2 2 2 2 2 2 2 2 2 2 2 2 2 2 2 2 2 2 2 2 2 2
left_child=1 11 3 27 5 6 -5 -7 10 -10 -8 29 13 28 -15 -16 -17 -14 -13 25 21 -21 -23 24 -24 26 -20 -3 -4 -1
right_child=-2 2 12 4 -6 7 8 -9 9 -11 -12 18 17 14 15 16 -18 -19 19 20 -22 22 23 -25 -26 -27 -28 -29 -30 -31
leaf_value=-0.078862621057118831 0.079410335972371307 -0.078867623040803858 -0.078857759561385091 -0.08026060666449554 -0.080276343514312135 -0.0802539114239465 -0.05519798833340777 -0.061101076552832125 -0.080739325540027773 -0.048024782027172447 -0.0441512610134768 -0.08008035355165076 -0.078871546268454343 -0.048950101061064587 -0.079405340992212914 -0.07947376435375203 -0.054634391537210142 -0.080234050379763167 -0.063662094698931498 -0.08016218883763894 -0.080275215363114785 -0.080266213969916567 -0.065050012318452519 -0.080219402884550109 -0.054513029166000863 -0.060851705837573725 -0.080347726556875235 -0.080942213727627013 -0.080060836589673154 -0.07903849316907148
leaf_weight=11.449631012801552 38.76449612621218 0.46704016183502861 0.40450396051164605 0.021867661387659609 0.15787119296146557 0.089988419902510941 0.069741765677463263 0.059749218635261059 0.035233178292401135 0.049537136044818908 0.14087105053476989 7.6719188484712486 4.7842020673560892 0.050811106397304573 0.21665149444015697 0.037270806147716939 0.050745625398121774 3.3680959707126021 0.048680688603781164 0.52715562173398245 2.6940466792439111 0.099295807827729732 0.068971507251262665 0.041412487102206796 0.044610307435505092 0.047140553826466203 0.024909469648264682 0.19365672650747001 0.68589217832777649 5.3564662951393975
leaf_count=13945 45310 569 486 39 281 160 43 28 61 9 14 13715 5812 11 307 53 11 5977 14 943 4813 177 48 74 4 10 44 73 923 6086
internal_value=9.07189e-09 -0.079016 -0.0783659 -0.0724226 -0.0649651 -0.0597889 -0.0537369 -0.0726114 -0.0517733 -0.061622 -0.0478092 -0.079268 -0.0791619 -0.0776252 -0.0715232 -0.0752879 -0.0651527 -0.0794345 -0.0797889 -0.0791672 -0.0796243 -0.0773804 -0.0716136 -0.0660703 -0.0609115 -0.0660074 -0.06931 -0.0794757 -0.0796145 -0.0789187
internal_weight=77.7225 38.958 10.8837 1.28556 0.62486 0.466988 0.317251 0.149738 0.295383 0.0847703 0.210613 28.0742 9.59817 1.44588 0.355479 0.304668 0.0880164 8.1523 11.2681 3.59622 3.47549 0.781446 0.25429 0.154994 0.113582 0.120731 0.0735902 0.660697 1.0904 16.8061
internal_count=100040 54730 14857 1277 635 354 166 188 127 70 57 39873 13580 1791 382 371 64 11789 19842 6127 6059 1246 303 126 52 68 58 642 1409 20031
is_linear=0
shrinkage=0.05


Tree=4
num_leaves=31
num_cat=0
split_feature=8 6 6 8 3 5 1 1 1 4 8 6 3 0 4 8 6 6 11 6 5 1 1 1 4 7 8 4 3 5
split_gain=176.082 0.00210292 0.0181532 0.025445 0.018345 0.0128409 0.00621331 0.00552015 0.0136254 0.00544998 0.00119695 0.0010966 0.00528156 0.00881069 0.0086422 0.00101277 0.00077111 0.0101287 0.00159345 0.00153664 0.00390731 0.0041469 0.00250844 0.00384188 0.00102902 0.000320709 0.000129544 8.9752e-05 5.82569e-05 0.000187512
threshold=5.5000000000000009 996.00000000000011 999.50000000000011 2.5000000000000004 8.5000000000000018 1.5000000000000002 13691.420000000002 20522.765000000003 44792.935000000005 818.50000000000011 2.5000000000000004 1199.5000000000002 12.500000000000002 2.5000000000000004 278.50000000000006 2.5000000000000004 577.50000000000011 584.50000000000011 -25904.629999999994 599.50000000000011 2.5000000000000004 47074.985000000008 12728.495000000003 12531.155000000001 207.50000000000003 4.6500000000000012 1.5000000000000002 470.50000000000006 13.500000000000002 2.5000000000000004
decision_type=2 2 2 2 2 2 2 2 2 2 2 2 2 2 2 2 2 2 2 2 2 2 2 2 2 2 2 2 2 2
left_child=1 10 3 25 5 6 -5 -8 -9 -7 28 12 26 -14 -15 -13 -12 18 -18 20 -19 22 23 -22 -20 -3 -4 -27 -1 -30
right_child=-2 2 11 4 -6 9 7 8 -10 -11 16 15 13 14 -16 -17 17 19 24 -21 21 -23 -24 -25 -26 27 -28 -29 29 -31
leaf_value=-0.074661947602260456 0.075093898903769246 -0.074642114780472016 -0.074633128705471369 -0.075794006540926107 -0.075807219655751129 -0.075789372714735626 -0.041030267919313086 -0.076636499774804551 -0.043979084838313663 -0.056017983210828626 -0.075645483070168676 -0.07464546263692029 -0.075099334290465045 -0.050095076571907676 -0.075073514000668529 -0.075772737547875377 -0.076367553732177587 -0.075713443958952756 -0.052242132900463492 -0.075806577850223364 -0.07588295631529253 -0.055314252862756964 -0.075873391711722277 -0.053521966823079706 -0.062399711422233897 -0.07455885160120547 -0.075757049287541678 -0.077586384501862282 -0.074638545647616891 -0.075601062139179137
leaf_weight=14.675451798422733 39.124862129800022 0.47592043614713364 0.41225695336470269 0.021872077835723758 0.15790636395104229 0.09001976961735636 0.138806460541673 0.048290670267306268 0.094327491824515164 0.056876610964536667 7.6884805856388976 4.8749702092027274 0.2023958580684847 0.095917415048461407 0.054193799034692347 3.3697120093856938 0.01341169502120465 0.52775474282680113 0.043741162691731339 2.6928181584225968 0.037140711443498731 0.05047578172525391 0.12058662786148489 0.039785644854418933 0.057988252956420183 0.029109286493621767 0.67806663358351216 0.15392066503409296 1.6873047580011182 0.72274757036939252
leaf_count=17371 45310 569 486 39 281 160 25 82 20 28 13715 5812 283 23 76 5977 23 943 9 4813 66 20 214 3 36 35 923 38 2022 638
internal_value=1.28257e-08 -0.0747359 -0.0741475 -0.0685195 -0.0611436 -0.0560003 -0.0501235 -0.0481285 -0.0550369 -0.0681341 -0.0749632 -0.0748837 -0.073612 -0.0682917 -0.0591129 -0.0751062 -0.0753631 -0.0747574 -0.0601679 -0.0752417 -0.073281 -0.0681043 -0.0713729 -0.064318 -0.0580322 -0.0753262 -0.0753321 -0.0771049 -0.0746994 -0.0749272
internal_weight=78.4371 39.3123 10.9546 1.26705 0.608099 0.450193 0.303297 0.281425 0.142618 0.146896 28.3577 9.68751 1.44283 0.352507 0.150111 8.24468 11.2722 3.5837 0.115141 3.46856 0.775744 0.247989 0.197513 0.0769264 0.101729 0.65895 1.09032 0.18303 17.0855 2.41005
internal_count=100040 54730 14857 1277 635 354 166 127 102 188 39873 13580 1791 382 99 11789 19842 6127 68 6059 1246 303 283 69 45 642 1409 73 20031 2660
is_linear=0
shrinkage=0.05


Tree=5
num_leaves=31
num_cat=0
split_feature=8 6 6 8 3 5 1 4 1 1 6 3 0 4 8 8 6 6 11 11 1 4 7 6 5 1 1 4 8 7
split_gain=161.331 0.0017385 0.0150417 0.0225841 0.0161395 0.0109406 0.00556284 0.00524164 0.00478773 0.0122304 0.000907739 0.0046754 0.00798261 0.00819428 0.000737236 0.000718427 0.000677557 0.00908653 0.0014777 0.00135991 0.00780549 0.000732097 0.000412143 0.000310195 0.000875353 0.00211912 0.00343735 0.000119655 0.000113962 7.78012e-05
threshold=5.5000000000000009 996.00000000000011 999.50000000000011 2.5000000000000004 8.5000000000000018 1.5000000000000002 13691.420000000002 818.50000000000011 20522.765000000003 44792.935000000005 1199.5000000000002 12.500000000000002 2.5000000000000004 278.50000000000006 2.5000000000000004 2.5000000000000004 577.50000000000011 584.50000000000011 -25904.629999999994 -46579.609999999993 47272.700000000004 207.50000000000003 4.6500000000000012 599.50000000000011 2.5000000000000004 12728.495000000003 12531.155000000001 470.50000000000006 1.5000000000000002 1.1500000000000001
decision_type=2 2 2 2 2 2 2 2 2 2 2 2 2 2 2 2 2 2 2 2 2 2 2 2 2 2 2 2 2 2
left_child=1 14 3 22 5 6 -5 -7 -8 -10 11 28 -13 -14 -1 -12 -16 18 -18 20 -19 -20 -3 24 -21 26 -26 -24 -4 -30
right_child=-2 2 10 4 -6 7 8 -9 9 -11 15 12 13 -15 16 -17 17 19 21 23 -22 -23 27 -25 25 -27 -28 -29 29 -31
leaf_value=-0.07127404985384822 0.071597580023824534 -0.071215413959937551 -0.071207703172869785 -0.072181560672135686 -0.072191862911725344 -0.072177586272608812 -0.039190694589870873 -0.052552144894936884 -0.07288066289321371 -0.041613706548425861 -0.071217684851385271 -0.071595967555719939 -0.047096679354619669 -0.071574535581281046 -0.072057089560767437 -0.072163391379678296 -0.072660927975079781 -0.048025367490477741 -0.049879696225182048 -0.072114637370032153 -0.072201861788398006 -0.058676322545315331 -0.071145146392968442 -0.072191841157011577 -0.072255475257689314 -0.072247387823654668 -0.050754038843900721 -0.07463556114605728 -0.073872436582226128 -0.072079784981710249
leaf_weight=17.286022642510947 39.428792033344507 0.48145537445088737 0.41794564947485813 0.02194546686951071 0.15838406688999385 0.090327206125948578 0.13178281905129552 0.054581211472395808 0.048037587432190776 0.089634230476804078 4.9414160702144709 0.20420952298445616 0.091126259008888155 0.054722007596865296 7.7204942906973866 3.3831337812007405 0.013377216004300863 0.040473745903000569 0.041188756411429828 0.49557404749793965 0.19062010350171477 0.055554276215843856 0.029529915715102106 2.552565285412129 0.037227378692477942 0.12087290006456897 0.037124029826372862 0.14570446021389216 0.067244451201986521 0.60569469042820856
leaf_count=20031 45310 569 486 39 281 160 25 28 82 20 5812 283 23 76 13715 5977 23 7 9 882 339 36 35 4548 66 214 3 38 30 893
internal_value=-3.07397e-08 -0.0712738 -0.0707401 -0.065579 -0.0585206 -0.0535577 -0.0479744 -0.0647855 -0.0460029 -0.0525236 -0.0714015 -0.0702428 -0.065215 -0.0562807 -0.0714794 -0.071602 -0.0717933 -0.0712253 -0.0570849 -0.0716734 -0.0679676 -0.0549311 -0.0719711 -0.0719375 -0.0709975 -0.0681617 -0.0615197 -0.0740474 -0.0718562 -0.0722589
internal_weight=79.0368 39.608 11.0169 1.25138 0.594693 0.436309 0.2914 0.144908 0.269455 0.137672 9.76549 1.44094 0.350058 0.145848 28.5911 8.32455 11.3051 3.58458 0.11012 3.47446 0.231094 0.096743 0.65669 3.24336 0.690798 0.195224 0.0743514 0.175234 1.09088 0.672939
internal_count=100040 54730 14857 1277 635 354 166 188 127 102 13580 1791 382 99 39873 11789 19842 6127 68 6059 346 45 642 5713 1165 283 69 73 1409 923
is_linear=0
shrinkage=0.05


Tree=6
num_leaves=31
num_cat=0
split_feature=8 6 6 8 3 5 7 7 4 6 3 7 6 4 8 7 8 6 6 11 1 11 11 6 5 1 1 7 4 6
split_gain=149.402 0.00141035 0.0124582 0.0196494 0.0140513 0.010998 0.00517977 0.0146532 0.00371445 0.000749537 0.00421588 0.00738748 0.00373556 0.00464206 0.000518472 0.000461397 0.000431507 0.000654679 0.0082327 0.00157107 0.00928742 0.00138987 0.000604065 0.000258744 0.000746379 0.00185084 0.00317368 0.00015167 0.000140568 6.18645e-05
threshold=5.5000000000000009 996.00000000000011 999.50000000000011 2.5000000000000004 8.5000000000000018 1.5000000000000002 4.6500000000000012 1.7500000000000002 818.50000000000011 1199.5000000000002 12.500000000000002 1.1500000000000001 1198.5000000000002 219.50000000000003 2.5000000000000004 4.6500000000000012 2.5000000000000004 577.50000000000011 584.50000000000011 -46579.609999999993 47272.700000000004 -25904.629999999994 -24924.194999999996 599.50000000000011 2.5000000000000004 12728.495000000003 12531.155000000001 1.1500000000000001 470.50000000000006 577.50000000000011
decision_type=2 2 2 2 2 2 2 2 2 2 2 2 2 2 2 2 2 2 2 2 2 2 2 2 2 2 2 2 2 2
left_child=1 16 3 15 5 6 7 -5 -7 10 27 -12 -13 -14 -11 -3 29 -18 21 20 -20 -19 -23 24 -21 26 -26 -4 -17 -1
right_child=-2 2 9 4 -6 8 -8 -9 -10 14 11 12 13 -15 -16 28 17 18 19 23 -22 22 -24 -25 25 -27 -28 -29 -30 -31
leaf_value=-0.068386618710598354 0.068719137749533532 -0.0683919779118283 -0.071125898420180494 -0.039186906309391027 -0.069220015192780329 -0.069206791229941694 -0.038200120286893922 -0.069815193048097607 -0.052452200059850254 -0.068393924624853719 -0.043204862073309806 -0.068757613874393317 -0.044872047248375659 -0.068775794615322891 -0.069195447976695454 -0.068332486158584407 -0.069105337031011196 -0.069616637573577667 -0.042358280071767257 -0.069154241582230186 -0.069228443888791111 -0.046922610672198363 -0.055368599036753618 -0.069220033133380224 -0.069273492163014164 -0.069266396669646069 -0.048274927985371446 -0.068846531374978731 -0.072121794391890287 -0.068589517429674424
leaf_weight=11.948790946218656 39.632294297218323 0.48580676363780984 0.078649877337737872 0.093959902587812394 0.1588214329094626 0.090582305623684078 0.12035432975972071 0.066822914173826575 0.052110565011389554 4.9748284562956524 0.042682141065597423 0.22334892197977751 0.042678401747252792 0.038752491760533303 3.3940997395548038 0.029817772272508591 7.7464734785025922 0.01336903654737398 0.03865544707514379 0.49718417716212604 0.19133293686900288 0.032832276076078415 0.059599530883133744 2.5606302340165712 0.037313563632778823 0.12115760834421962 0.034752897568978369 1.0126048570382407 0.13656810333486646 5.479732237989082
leaf_count=13945 45310 569 45 33 281 160 19 114 28 5812 11 307 11 53 5977 35 13715 23 7 882 339 1 44 4548 66 214 3 1364 38 6086
internal_value=-5.3389e-09 -0.0684222 -0.0679418 -0.0632088 -0.0565358 -0.0517826 -0.0460444 -0.0519163 -0.0630881 -0.0685378 -0.0674835 -0.0626869 -0.0654152 -0.0562477 -0.068719 -0.0691703 -0.0686066 -0.0688467 -0.0682883 -0.0687059 -0.0647122 -0.054548 -0.0523685 -0.0689884 -0.0681294 -0.0654923 -0.0591473 -0.0690108 -0.0714427 -0.0684504
internal_weight=79.4366 39.8043 11.0425 1.23484 0.582651 0.42383 0.281137 0.160783 0.142693 9.80764 1.43872 0.347462 0.30478 0.0814309 8.36893 0.652193 28.7618 11.3333 3.58683 3.48103 0.229988 0.105801 0.0924318 3.25104 0.690408 0.193224 0.0720665 1.09125 0.166386 17.4285
internal_count=100040 54730 14857 1277 635 354 166 147 188 13580 1791 382 371 64 11789 642 39873 19842 6127 6059 346 68 45 5713 1165 283 69 1409 73 20031
is_linear=0
shrinkage=0.05


Tree=7
num_leaves=31
num_cat=0
split_feature=8 6 6 8 3 5 7 7 4 3 6 7 6 7 7 8 8 6 6 11 1 11 4 6 5 1 1 4 8 1
split_gain=139.48 0.00126576 0.0111968 0.0182737 0.0130931 0.0100324 0.00499831 0.0137307 0.00372529 0.000658686 0.00378534 0.00698919 0.00343716 0.00445955 0.000497346 0.000278215 0.000259389 0.000583135 0.00626304 0.00129113 0.00824004 0.00111508 0.000384164 0.000320071 0.000959959 0.00239497 0.00427629 0.000158999 7.68956e-05 6.67116e-05
threshold=5.5000000000000009 996.00000000000011 999.50000000000011 2.5000000000000004 8.5000000000000018 1.5000000000000002 4.6500000000000012 1.7500000000000002 818.50000000000011 12.500000000000002 1199.5000000000002 1.1500000000000001 1198.5000000000002 4.1500000000000012 4.6500000000000012 2.5000000000000004 2.5000000000000004 577.50000000000011 584.50000000000011 -46579.609999999993 47272.700000000004 -25904.629999999994 207.50000000000003 599.50000000000011 2.5000000000000004 12728.495000000003 12531.155000000001 470.50000000000006 2.5000000000000004 2915.9150000000004
decision_type=2 2 2 2 2 2 2 2 2 2 2 2 2 2 2 2 2 2 2 2 2 2 2 2 2 2 2 2 2 2
left_child=1 16 3 14 5 6 7 -5 -7 15 11 -11 -13 -14 -3 29 -1 -18 21 20 -20 -19 -23 24 -21 26 -26 -16 -12 -4
right_child=-2 2 9 4 -6 8 -8 -9 -10 10 28 12 13 -15 27 -17 17 18 19 23 -22 22 -24 -25 25 -27 -28 -29 -30 -31
leaf_value=-0.066095153312041063 0.066317974418895934 -0.066035033954105787 -0.066973602957522624 -0.037352515408100619 -0.066743350197017839 -0.066732596983875653 -0.036299395522648832 -0.067249363973048662 -0.0497571053876067 -0.041128251678132083 -0.066035130826480881 -0.066347094961884109 -0.066433240983628669 -0.04275990914101907 -0.065984687694023741 -0.066723891109995756 -0.066645730888055046 -0.067082080123303731 -0.040868863053492327 -0.06668757489945662 -0.066750642845731331 -0.047632554232578048 -0.05434479109167998 -0.066743398492683889 -0.066789232947180754 -0.066783064206336257 -0.042110046646424287 -0.070029354327628482 -0.066722135141721484 -0.066072685309059714
leaf_weight=17.497282061376612 39.725051308050752 0.48837868543341645 0.21526970504782905 0.090563601930625737 0.15900403301930055 0.090694023994728923 0.11455561110051349 0.066681852156762034 0.050211715395562351 0.040761937561910933 0.96496234211372189 0.22419272182742134 0.03867049579275772 0.040970196947455406 0.029987750458531082 3.084870170452632 7.7598278790246678 0.013355714967474341 0.036634009506088083 0.49797665921505574 0.19154850434279069 0.036277363484260028 0.05169032618869096 2.5636113755754195 0.037356067390646785 0.12129905313486233 0.033110780059359968 0.12806107610231265 0.70480321545619518 4.5187479991582222
leaf_count=20031 45310 569 201 33 281 160 19 114 28 11 1116 307 53 11 35 5428 13715 23 7 882 339 9 36 4548 66 214 3 38 1240 5213
internal_value=-1.97261e-08 -0.0660415 -0.0655866 -0.0610648 -0.0545529 -0.0498563 -0.0442434 -0.0500306 -0.0606834 -0.0661467 -0.0653405 -0.0605693 -0.0631775 -0.0542548 -0.066824 -0.0663544 -0.0662159 -0.0664021 -0.0658745 -0.0662312 -0.0625954 -0.0536205 -0.0515767 -0.0664862 -0.06553 -0.0625242 -0.055193 -0.0692619 -0.0663251 -0.0661137
internal_weight=79.6164 39.8914 11.0514 1.21814 0.571711 0.412707 0.271801 0.157245 0.140906 9.83325 2.01436 0.344595 0.303833 0.0796407 0.646428 7.81889 28.84 11.3427 3.58286 3.48154 0.228183 0.101323 0.0879677 3.25335 0.689743 0.191766 0.0704668 0.158049 1.66977 4.73402
internal_count=100040 54730 14857 1277 635 354 166 147 188 13580 2738 382 371 64 642 10842 39873 19842 6127 6059 346 68 45 5713 1165 283 69 73 2356 5414
is_linear=0
shrinkage=0.05


Tree=8
num_leaves=31
num_cat=0
split_feature=8 6 6 8 3 5 7 7 4 3 6 7 6 4 7 8 4 8 6 6 11 1 11 4 6 5 1 1 1 11
split_gain=131.05 0.00115154 0.0102135 0.0171326 0.0123204 0.00932346 0.00491627 0.012993 0.00370079 0.00060167 0.00345933 0.00667477 0.00320287 0.00438233 0.000523277 0.000198044 0.0001756 0.000149872 0.000530781 0.00611549 0.00112826 0.00755942 0.00111805 0.000350042 0.000270835 0.000825129 0.00210352 0.00394923 6.76611e-05 0.000285642
threshold=5.5000000000000009 996.00000000000011 999.50000000000011 2.5000000000000004 8.5000000000000018 1.5000000000000002 4.6500000000000012 1.7500000000000002 818.50000000000011 12.500000000000002 1199.5000000000002 1.1500000000000001 1198.5000000000002 219.50000000000003 4.6500000000000012 2.5000000000000004 470.50000000000006 2.5000000000000004 577.50000000000011 584.50000000000011 -46579.609999999993 47272.700000000004 -25904.629999999994 207.50000000000003 599.50000000000011 2.5000000000000004 12728.495000000003 12531.155000000001 2915.9150000000004 -1530.6099999999999
decision_type=2 2 2 2 2 2 2 2 2 2 2 2 2 2 2 2 2 2 2 2 2 2 2 2 2 2 2 2 2 2
left_child=1 17 3 14 5 6 7 -5 -7 15 11 -11 -13 -14 -3 28 -16 -1 -19 22 21 -21 -20 -24 25 -22 27 -27 29 -4
right_child=-2 2 9 4 -6 8 -8 -9 -10 10 -12 12 13 -15 16 -17 -18 18 19 20 24 -23 23 -25 -26 26 -28 -29 -30 -31
leaf_value=-0.06410766970777021 0.064293294591386732 -0.064047223848038057 -0.068477437955501694 -0.035765558458556425 -0.064656973953642616 -0.064648231764313724 -0.034559642324678182 -0.065091103105686166 -0.047529484067821509 -0.03930321077134169 -0.064296419386816572 -0.064315386644994074 -0.040646328039201651 -0.064375705152297222 -0.064003519066234069 -0.064640535609358438 -0.068276930478604267 -0.06457334077206589 -0.06494857071564937 -0.039315487359751662 -0.064609219675779359 -0.064663383826438992 -0.045476113933945309 -0.05203537448854291 -0.064657619632746882 -0.064696670574229481 -0.06469139142986613 -0.040579110595298999 -0.06408470329743976 -0.064032655265949381
leaf_weight=17.510269209160473 39.709568481892347 0.48938073363387846 0.046162659011315554 0.087450160412117839 0.15886139078065753 0.090598053415305912 0.10916158329928294 0.066488104814197868 0.048457410885021091 0.038996284769382661 1.669556508073583 0.22434951545437798 0.038806909404229373 0.039020993921440095 0.030055098119191825 3.0833120631868951 0.12009250500705093 7.7559329989599046 0.013323882769327611 0.034752647392452096 0.49765765079064328 0.19144796062028036 0.034340586338658219 0.049889716843608767 2.5613752728095278 0.037318078975658864 0.12117123563075438 0.031136420904658735 4.5249290458741598 0.16658398852450584
leaf_count=20031 45310 569 8 33 281 160 19 114 28 11 2356 307 11 53 35 5428 38 13715 23 7 882 339 9 36 4548 66 214 3 5213 193
internal_value=1.16496e-08 -0.0640332 -0.0635987 -0.0592451 -0.0528678 -0.0482108 -0.0426761 -0.0484317 -0.0586828 -0.0641303 -0.0633589 -0.0587711 -0.0612835 -0.0525437 -0.0648394 -0.0643287 -0.0674215 -0.0641994 -0.0643411 -0.0638368 -0.0641834 -0.060769 -0.0514901 -0.0493612 -0.0644211 -0.0635398 -0.0607332 -0.0537268 -0.0641257 -0.0649971
internal_weight=79.5804 39.8709 11.0323 1.20055 0.561017 0.402155 0.2631 0.153938 0.139055 9.83172 2.01073 0.341174 0.302177 0.0778279 0.639528 7.82099 0.150148 28.8386 11.3283 3.57241 3.47486 0.226201 0.0975542 0.0842303 3.24866 0.687283 0.189626 0.0684545 4.73768 0.212747
internal_count=100040 54730 14857 1277 635 354 166 147 188 13580 2738 382 371 64 642 10842 73 39873 19842 6127 6059 346 68 45 5713 1165 283 69 5414 201
is_linear=0
shrinkage=0.05


Tree=9
num_leaves=31
num_cat=0
split_feature=8 6 6 8 3 5 7 7 4 3 6 7 6 4 7 4 8 1 11 4 8 6 6 11 6 5 1 1 8 3
split_gain=123.764 0.000997044 0.00896225 0.0154818 0.0111917 0.00976825 0.00486737 0.0123435 0.00262107 0.000549819 0.00317558 0.00639504 0.00298661 0.00423781 0.000540186 0.000190105 0.000142985 0.000129407 0.00185044 0.00318879 0.000124523 0.000278841 0.00620487 0.000988713 0.000323137 0.00100677 0.00258992 0.00503796 0.0001394 6.92647e-05
threshold=5.5000000000000009 996.00000000000011 999.50000000000011 2.5000000000000004 8.5000000000000018 1.5000000000000002 4.6500000000000012 1.7500000000000002 818.50000000000011 12.500000000000002 1199.5000000000002 1.1500000000000001 1198.5000000000002 219.50000000000003 4.6500000000000012 470.50000000000006 1.5000000000000002 47074.985000000008 -46781.759999999995 235.50000000000003 2.5000000000000004 577.50000000000011 584.50000000000011 -25904.629999999994 599.50000000000011 2.5000000000000004 12728.495000000003 12531.155000000001 3.5000000000000004 13.500000000000002
decision_type=2 2 2 2 2 2 2 2 2 2 2 2 2 2 2 2 2 2 2 2 2 2 2 2 2 2 2 2 2 2
left_child=1 17 3 14 5 6 7 -5 -7 16 11 -11 -13 -14 -3 -16 -4 20 -19 -20 29 -22 23 -23 25 -24 27 -27 -25 -1
right_child=-2 2 9 4 -6 8 -8 -9 -10 10 -12 12 13 -15 15 -17 -18 18 19 -21 21 22 24 28 -26 26 -28 -29 -30 -31
leaf_value=-0.062378525829840263 0.062570406734407322 -0.062355345149888858 -0.062346113658629021 -0.034423323376790264 -0.062883861998737439 -0.062876067899014995 -0.033028958740217711 -0.063258844434565642 -0.04824438872035515 -0.037733148260712432 -0.062570643642527055 -0.062587418616076418 -0.039022132452558901 -0.062639550346681769 -0.062317731606325644 -0.066794945682068937 -0.062781971414276591 -0.062535868507684819 -0.046689762007241918 -0.062636051364819714 -0.062812219394736066 -0.063151823739861224 -0.062842339376623604 -0.045158605974624691 -0.062883959894407607 -0.062918041131722044 -0.062913466294758913 -0.035322971305901694 -0.049347703151481785 -0.062675671555463594
leaf_weight=14.192906166717885 39.593097614590079 0.48892226914176606 3.1703738374635559 0.084489131055306643 0.15838223620085046 0.090319899318274111 0.10405478643951938 0.066185232601128519 0.046296811487991363 0.037322155549191272 1.6698650599573737 0.22390834777615964 0.037088317854795605 0.038932517520152032 0.030031738802790642 0.11261773703154176 4.6291163386777043 1.5529692200943825 0.051726344390771284 0.079587594198528677 7.2893633290659618 0.011555878329090774 0.49453605432063374 0.035314720065798944 2.5446774759911932 0.037224487867206335 0.12086031562648714 0.029765494458843023 0.045377119851764292 2.2756011681049122
leaf_count=16361 45310 569 3593 33 281 160 19 114 28 11 2356 307 11 53 35 38 7249 2179 32 113 12928 20 879 15 4530 66 214 3 30 2503
internal_value=-5.62911e-10 -0.0623244 -0.0619193 -0.0578049 -0.0516696 -0.047131 -0.041346 -0.0470896 -0.0579177 -0.0624149 -0.0616769 -0.0572514 -0.0596802 -0.0511173 -0.0631452 -0.0658524 -0.0626048 -0.0624792 -0.0620539 -0.0563546 -0.0625056 -0.0626392 -0.0622594 -0.0494733 -0.0626249 -0.0616587 -0.0585426 -0.0506568 -0.0475143 -0.0624196
internal_weight=79.3425 39.7494 10.9879 1.1813 0.549728 0.391346 0.254729 0.150674 0.136617 9.80661 2.00712 0.337251 0.299929 0.0760208 0.631572 0.142649 7.79949 28.7615 1.68428 0.131314 27.0772 10.6087 3.31931 0.0922477 3.22706 0.682386 0.18785 0.06699 0.0806918 16.4685
internal_count=100040 54730 14857 1277 635 354 166 147 188 13580 2738 382 371 64 642 73 10842 39873 2324 145 37549 18685 5757 65 5692 1162 283 69 45 18864
is_linear=0
shrinkage=0.05


Tree=10
num_leaves=31
num_cat=0
split_feature=8 6 6 8 3 5 8 1 1 1 4 7 3 6 7 6 7 0 1 11 4 8 1 1 10 8 3 5 6 8
split_gain=117.372 0.000921343 0.00833586 0.0146677 0.0106666 0.00916087 0.00655442 0.00442328 0.00397035 0.00878633 0.00266679 0.000552451 0.000508133 0.00294051 0.00616678 0.00280508 0.00416865 0.00028611 0.000128019 0.0018288 0.00322528 0.000113594 8.2022e-05 0.00100228 0.00168651 0.000100377 9.78649e-05 0.000299231 0.000435965 0.000382155
threshold=5.5000000000000009 996.00000000000011 999.50000000000011 2.5000000000000004 8.5000000000000018 1.5000000000000002 4.5000000000000009 13691.420000000002 21478.845000000005 44792.935000000005 818.50000000000011 4.6500000000000012 12.500000000000002 1199.5000000000002 1.1500000000000001 1198.5000000000002 4.1500000000000012 1.5000000000000002 47074.985000000008 -46781.759999999995 235.50000000000003 1.5000000000000002 26495.410000000003 26299.515000000003 1.0000000180025095e-35 2.5000000000000004 13.500000000000002 2.5000000000000004 595.50000000000011 1.0000000180025095e-35
decision_type=2 2 2 2 2 2 2 2 2 2 2 2 2 2 2 2 2 2 2 2 2 2 2 2 2 2 2 2 2 2
left_child=1 18 3 11 5 6 7 -5 -9 -10 -7 -3 21 14 -14 -16 -17 -13 22 -20 -21 -4 23 -1 -25 26 -24 -28 -29 -30
right_child=-2 2 12 4 -6 10 -8 8 9 -11 -12 17 13 -15 15 16 -18 -19 19 20 -22 -23 25 24 -26 -27 27 28 29 -31
leaf_value=-0.060995292214681696 0.061093439212242077 -0.060904302324682691 -0.060896386720209861 -0.061963655198280704 -0.061364775198814669 -0.06135803093888479 -0.062322377560842274 -0.027882385943786888 -0.062254706762236489 -0.031467108432384282 -0.046406452718962099 -0.065918476400715936 -0.036318136517077 -0.061091922148743982 -0.061106427209763753 -0.061241512107666853 -0.037524686718278522 -0.060757619098927844 -0.061061367669202594 -0.04493553795120394 -0.061148488274726236 -0.061285693389407828 -0.060942621360503574 -0.049548587065003702 -0.06107351494886875 -0.061313299113694909 -0.060897421333268781 -0.060883184820167163 -0.0663146221745015 -0.06090212086326801
leaf_weight=14.899905919795859 39.384235235862434 0.48716138297459 3.1583558677230013 0.016618452325928956 0.15756606985814869 0.08985758654307574 0.029419194499496371 0.097431708825752139 0.035149557050317526 0.068015927390661091 0.044638508232310414 0.098634518624749035 0.035731308918911853 1.6618351801298556 0.22294772783061489 0.038694878632668406 0.035549295716919005 0.036902729014400393 1.5463010144885627 0.050056640699039145 0.079223450913559645 4.60679668787634 6.2544101797393505 0.0514705641544424 0.082821657124441894 4.6582850604318082 0.68640414118999604 0.15241907595191151 0.10654938075458631 0.046997370314784348
leaf_count=20793 45310 569 3593 28 281 160 48 16 58 16 28 29 11 2356 307 53 11 44 2179 32 113 7249 7227 40 118 8309 802 175 27 58
internal_value=5.48032e-09 -0.0608587 -0.060468 -0.0564636 -0.0504223 -0.0458985 -0.0401741 -0.0371744 -0.0351207 -0.0419568 -0.0563957 -0.0616898 -0.0609445 -0.0602327 -0.0559437 -0.0583032 -0.0498855 -0.0645133 -0.0610078 -0.0605837 -0.0548709 -0.0611273 -0.0610342 -0.0609565 -0.0566563 -0.0611322 -0.0610158 -0.0614771 -0.0627775 -0.064658
internal_weight=78.9204 39.5362 10.9213 1.1614 0.538697 0.381131 0.246635 0.217216 0.200597 0.103165 0.134496 0.622699 9.75991 1.99476 0.332923 0.297192 0.0742442 0.135537 28.6148 1.67558 0.12928 7.76515 26.9393 15.0342 0.134292 11.9051 7.24678 0.99237 0.305966 0.153547
internal_count=100040 54730 14857 1277 635 354 166 118 90 74 188 642 13580 2738 382 371 64 73 39873 2324 145 10842 37549 20951 158 16598 8289 1062 260 85
is_linear=0
shrinkage=0.05


Tree=11
num_leaves=31
num_cat=0
split_feature=8 6 6 8 7 5 7 1 1 3 11 7 3 6 7 6 4 0 1 11 4 8 11 1 6 3 6 6 3 6
split_gain=111.694 0.000810841 0.00753885 0.013596 0.0101117 0.00664908 0.0108034 0.0039417 0.00411038 0.00240137 0.00314806 0.000571889 0.000467505 0.00270683 0.00590196 0.00261608 0.00402612 0.000308036 0.000120609 0.00176946 0.00318053 9.1802e-05 8.29178e-05 0.00141836 0.00250976 7.80398e-05 0.000217214 0.00362429 0.000719319 0.00210208
threshold=5.5000000000000009 996.00000000000011 999.50000000000011 2.5000000000000004 4.6500000000000012 1.0000000180025095e-35 1.7500000000000002 16237.475000000002 44792.935000000005 2.5000000000000004 -15085.244999999997 4.6500000000000012 12.500000000000002 1199.5000000000002 1.1500000000000001 1198.5000000000002 219.50000000000003 1.5000000000000002 47074.985000000008 -46781.759999999995 235.50000000000003 1.5000000000000002 -25904.629999999994 26299.515000000003 590.50000000000011 9.5000000000000018 577.50000000000011 584.50000000000011 10.500000000000002 599.50000000000011
decision_type=2 2 2 2 2 2 2 2 2 2 2 2 2 2 2 2 2 2 2 2 2 2 2 2 2 2 2 2 2 2
left_child=1 18 3 11 5 6 -5 -6 -9 10 -7 -3 21 14 -14 -16 -17 -13 22 -20 -21 -4 -1 25 -25 -24 -27 -28 29 -29
right_child=-2 2 12 4 7 9 -8 8 -10 -11 -12 17 13 -15 15 16 -18 -19 19 20 -22 -23 23 24 -26 26 27 28 -30 -31
leaf_value=-0.059857335848338238 0.059818793849624054 -0.059652166288284625 -0.059644949806447835 -0.03108992369854674 -0.028828212802827109 -0.060688941329628848 -0.060225808798006431 -0.060721233082569409 -0.034151211099183308 -0.060279905763831569 -0.037761779147525577 -0.064939291888099618 -0.035184620400330338 -0.059816090071976913 -0.059828794387055954 -0.036273508702378492 -0.05990276992949 -0.05952357888062873 -0.059789496090052491 -0.043597825723575692 -0.059865497155660113 -0.059996090403509499 -0.059812645166515389 -0.042663819661309894 -0.059834020987122219 -0.059786149393989643 -0.044653833313116648 -0.050641559461139997 -0.059909462527338989 -0.059810054406188612
leaf_weight=11.885997520643288 39.091820228844881 0.48423999047372379 3.1391726221190748 0.071769076050259173 0.067050648329313844 0.02923530776752159 0.057151965622324497 0.027371225471142679 0.031088720133993775 0.21258146484615281 0.030688206374179572 0.092297497554682195 0.034197956032585242 1.6508823686745016 0.22149402217473835 0.03378229436930269 0.038653917727060616 0.036694750422611833 1.5365416418644597 0.048598320689051344 0.078707245294936001 4.5727502139634453 8.8420432684360986 0.033835168462247434 0.057365330634638667 4.0253733225981714 0.042231983272358664 0.086332714185118564 1.5452697454602455 0.22661835083272308
leaf_count=16699 45310 569 3593 26 21 49 101 46 7 373 12 29 11 2356 307 11 53 44 2179 32 113 7249 12469 17 83 5687 27 88 2155 324
internal_value=6.829e-09 -0.0595929 -0.0592248 -0.055379 -0.0494889 -0.0533618 -0.0440061 -0.0371019 -0.0465914 -0.0577879 -0.0489474 -0.0604402 -0.0596772 -0.0589917 -0.0548439 -0.0571312 -0.0488827 -0.0633987 -0.0597332 -0.0593202 -0.0536554 -0.0598532 -0.0597589 -0.0596802 -0.0534639 -0.0597186 -0.0595781 -0.0591376 -0.0594668 -0.0572808
internal_weight=78.3318 39.24 10.8311 1.14017 0.526937 0.401426 0.128921 0.125511 0.0584599 0.272505 0.0599235 0.613232 9.69093 1.97901 0.328128 0.29393 0.0724362 0.128992 28.4089 1.66385 0.127306 7.71192 26.7451 14.8591 0.0912005 14.7679 5.92583 1.90045 1.85822 0.312951
internal_count=100040 54730 14857 1277 635 561 127 74 53 434 61 642 13580 2738 382 371 64 73 39873 2324 145 10842 37549 20850 100 20750 8281 2594 2567 412
is_linear=0
shrinkage=0.05


Tree=12
num_leaves=31
num_cat=0
split_feature=8 6 6 8 7 3 0 0 1 1 5 1 7 3 6 7 6 7 0 1 11 13 8 11 1 6 6 7 6 4
split_gain=106.6 0.000791414 0.00735586 0.0133398 0.0109344 0.00575757 0.00800233 0.00620227 0.00443566 0.00409826 0.00316897 0.00266509 0.000570905 0.000436055 0.00252995 0.00572093 0.0024737 0.00396012 0.000320991 0.000119224 0.00173003 0.00317684 7.44254e-05 7.30164e-05 0.00131414 0.00240734 6.82743e-05 0.000256792 7.36794e-05 0.000168929
threshold=5.5000000000000009 996.00000000000011 999.50000000000011 2.5000000000000004 4.6500000000000012 6.5000000000000009 1.5000000000000002 1.0000000180025095e-35 16237.475000000002 44792.935000000005 1.0000000180025095e-35 17822.860000000004 4.6500000000000012 12.500000000000002 1199.5000000000002 1.1500000000000001 1198.5000000000002 4.1500000000000012 1.5000000000000002 47074.985000000008 -46781.759999999995 1.5000000000000002 1.5000000000000002 -25904.629999999994 26299.515000000003 590.50000000000011 1199.5000000000002 1.1500000000000001 1198.5000000000002 203.50000000000003
decision_type=2 2 2 2 2 2 2 2 2 2 2 2 2 2 2 2 2 2 2 2 2 2 2 2 2 2 2 2 2 2
left_child=1 19 3 12 5 6 7 -5 -6 -10 -9 -12 -3 22 15 -15 -17 -18 -14 23 -21 -22 -4 -1 -25 -26 27 -24 -29 -30
right_child=-2 2 13 4 8 -7 -8 10 9 -11 11 -13 18 14 -16 16 17 -19 -20 20 21 -23 26 24 25 -27 -28 28 29 -31
leaf_value=-0.058752837395403018 0.058712801883255776 -0.058565023513236218 -0.058558996257678887 -0.059500577525241453 -0.026280098472161024 -0.05901086957115536 -0.059511581409397912 -0.025805220977365761 -0.059502385143289364 -0.032575890405774875 -0.034602076733242032 -0.059314080054802445 -0.064051961010236982 -0.034056995970649248 -0.058709203129265176 -0.058720280929326296 -0.058858577642178334 -0.035100890053024525 -0.058452202539060194 -0.058685830919871534 -0.058837991461805128 -0.042436975914534124 -0.062924337114584977 -0.058622682402054482 -0.041630400618161367 -0.058724998704429245 -0.058799032225957351 -0.058787733996013204 -0.062736415216067196 -0.058774406652582795
leaf_weight=11.777384755725508 38.726279039867222 0.48032407247228437 3.1136853522621077 0.03011482342844829 0.064485130133107305 0.180166570993606 0.079156469204463065 0.057118487660773098 0.027092427655588835 0.02953812072519213 0.031236931157764047 0.016766397631727159 0.086141814186703414 0.032749215955845901 1.6369151160470208 0.21961550950072706 0.038250254990998656 0.032396414666436613 0.03640760004054755 1.5234220983111297 0.077227872796355679 0.047799730324186385 0.046805661637335905 14.634077558119316 0.032289203896653684 0.056864543759729713 3.9063470869441517 0.45895196730270982 0.041911222564522177 0.075134115642867982
leaf_count=16699 45310 569 3593 51 21 323 134 9 46 7 15 29 29 11 2356 307 53 11 44 2179 110 35 30 20750 17 83 6326 748 24 121
internal_value=2.91182e-09 -0.0584951 -0.0581296 -0.0542922 -0.0483883 -0.0524221 -0.0468853 -0.0394948 -0.035247 -0.0454577 -0.0337637 -0.0432334 -0.0593422 -0.0585766 -0.0579112 -0.0538672 -0.0561023 -0.047964 -0.0623884 -0.0586344 -0.0582218 -0.0525677 -0.0587472 -0.05866 -0.0585858 -0.0525338 -0.0588765 -0.0593627 -0.0590733 -0.0601931
internal_weight=77.5967 38.8704 10.7213 1.11855 0.515675 0.39456 0.214393 0.135237 0.121116 0.0566305 0.105122 0.0480033 0.602873 9.60276 1.95993 0.323011 0.290262 0.0706467 0.122549 28.1491 1.64845 0.125028 7.64284 26.5006 14.7232 0.0891537 4.52915 0.622803 0.575997 0.117045
internal_count=100040 54730 14857 1277 635 561 238 104 74 53 53 44 642 13580 2738 382 371 64 73 39873 2324 145 10842 37549 20850 100 7249 923 893 145
is_linear=0
shrinkage=0.05


Tree=13
num_leaves=31
num_cat=0
split_feature=8 6 6 8 3 7 0 0 5 7 11 7 3 6 7 6 7 0 1 11 4 11 1 6 8 6 7 6 4 4
split_gain=101.981 0.000710793 0.0067144 0.0123878 0.00932322 0.00799762 0.00773402 0.00687553 0.00425485 0.00384914 0.00266111 0.000570981 0.000405318 0.00236045 0.00552469 0.00233339 0.0038372 0.00033497 0.000113253 0.00167716 0.00320024 7.89275e-05 0.0018263 0.00337376 6.03754e-05 6.54476e-05 0.000258839 7.10389e-05 0.000170876 5.85433e-05
threshold=5.5000000000000009 996.00000000000011 999.50000000000011 2.5000000000000004 8.5000000000000018 4.6500000000000012 1.5000000000000002 1.0000000180025095e-35 1.0000000180025095e-35 3.5500000000000003 -15085.244999999997 4.6500000000000012 12.500000000000002 1199.5000000000002 1.1500000000000001 1198.5000000000002 4.1500000000000012 1.5000000000000002 47074.985000000008 -46781.759999999995 235.50000000000003 -25904.629999999994 26299.515000000003 590.50000000000011 1.5000000000000002 1199.5000000000002 1.1500000000000001 1198.5000000000002 203.50000000000003 123.50000000000001
decision_type=2 2 2 2 2 2 2 2 2 2 2 2 2 2 2 2 2 2 2 2 2 2 2 2 2 2 2 2 2 2
left_child=1 18 3 11 5 6 7 -5 -9 -10 -7 -3 24 14 -14 -16 -17 -13 21 -20 -21 29 -23 -24 -4 26 -26 -28 -29 -1
right_child=-2 2 12 4 -6 10 -8 8 9 -11 -12 17 13 -15 15 16 -18 -19 19 20 -22 22 23 -25 25 -27 27 28 -30 -31
leaf_value=-0.058093469229518073 0.057748416780893708 -0.057617382097941407 -0.05761185099961337 -0.058428434882293816 -0.057961963233170433 -0.040465183899691087 -0.058382252960391595 -0.024655306121930915 -0.058374663535838256 -0.031175275602303345 -0.023772176401686145 -0.063317360087236471 -0.03310738803786302 -0.057744266940278649 -0.057754067766834651 -0.057875785044369014 -0.034150572529566624 -0.057517680257874695 -0.05772368834566597 -0.041082001570260734 -0.057815546709168102 -0.057661594580916756 -0.037317955194317541 -0.05775823685826259 -0.062070373640916082 -0.05782335206159487 -0.057813561943647909 -0.061877918887518812 -0.057801720211001245 -0.057750843563801363
leaf_weight=1.4196996685932415 38.295151002239436 0.47551980009302386 3.0816996666253527 0.039597452443558723 0.15410964528564364 0.042166864965111017 0.10359033744316548 0.056936171080451459 0.025375685945618898 0.026686241675633937 0.055034207412973046 0.080464902450330555 0.031361834669951238 1.6200117903645148 0.21734285383718088 0.037844120583031327 0.031005309545435011 0.036050897615496069 1.5078084617271086 0.045258691010530039 0.077497479855082929 14.471278111974243 0.031477266282309624 0.056284278631210327 0.044088373484555521 3.865396517328918 0.45416169427335262 0.039301419223193079 0.074348580557852983 10.233901693194637
leaf_count=1936 45310 569 3593 68 281 30 179 13 44 10 10 29 11 2356 307 53 11 44 2179 32 113 20750 17 83 30 6326 748 24 121 14763
internal_value=3.85285e-09 -0.0575378 -0.0571892 -0.0534828 -0.0477174 -0.0431987 -0.0478952 -0.0405843 -0.0341018 -0.0444326 -0.0310138 -0.058386 -0.0576168 -0.0569716 -0.0530299 -0.055213 -0.0471915 -0.0615229 -0.0576705 -0.0572661 -0.0516461 -0.0576956 -0.057618 -0.050427 -0.0577822 -0.0578994 -0.0583799 -0.0580933 -0.0592113 -0.0577926
internal_weight=76.7305 38.4353 10.5921 1.09553 0.503497 0.349387 0.252186 0.148596 0.108998 0.0520619 0.0972011 0.592036 9.49656 1.93757 0.317554 0.286192 0.0688494 0.116516 27.8432 1.63056 0.122756 26.2126 14.559 0.0877615 7.559 4.4773 0.6119 0.567812 0.11365 11.6536
internal_count=100040 54730 14857 1277 635 354 314 135 67 54 40 642 13580 2738 382 371 64 73 39873 2324 145 37549 20850 100 10842 7249 923 893 145 16699
is_linear=0
shrinkage=0.05


Tree=14
num_leaves=31
num_cat=0
split_feature=8 6 6 8 7 3 0 0 1 1 5 1 7 3 6 7 6 7 0 1 11 10 11 1 6 4 6 6 8 5
split_gain=97.7617 0.00062855 0.00612473 0.0114617 0.0101283 0.00483855 0.00684048 0.00548033 0.0036325 0.00429511 0.00311337 0.00196711 0.000565736 0.000376501 0.00218156 0.00528231 0.00217739 0.00367666 0.000346223 0.000105343 0.00159235 0.00308142 7.48072e-05 0.00229664 0.00427951 5.74828e-05 0.000147685 0.000408233 0.000314394 0.000173726
threshold=5.5000000000000009 996.00000000000011 999.50000000000011 2.5000000000000004 4.6500000000000012 6.5000000000000009 1.5000000000000002 1.0000000180025095e-35 16237.475000000002 44792.935000000005 1.0000000180025095e-35 24140.645000000004 4.6500000000000012 12.500000000000002 1199.5000000000002 1.1500000000000001 1198.5000000000002 4.1500000000000012 1.5000000000000002 47074.985000000008 -46781.759999999995 1.0000000180025095e-35 -25904.629999999994 26299.515000000003 590.50000000000011 123.50000000000001 577.50000000000011 601.00000000000011 1.5000000000000002 2.5000000000000004
decision_type=2 2 2 2 2 2 2 2 2 2 2 2 2 2 2 2 2 2 2 2 2 2 2 2 2 2 2 2 2 2
left_child=1 19 3 12 5 6 7 -5 -6 -10 -9 -12 -3 -4 15 -15 -17 -18 -14 22 -21 -22 25 -24 -25 26 -1 28 29 -28
right_child=-2 2 13 4 8 -7 -8 10 9 -11 11 -13 18 14 -16 16 17 -19 -20 20 21 -23 23 24 -26 -27 27 -29 -30 -31
leaf_value=-0.056872411717866903 0.056904063269630691 -0.056787326667576743 -0.056940648065155308 -0.057514306448641778 -0.025434543723292853 -0.057139148083572025 -0.057522833194203642 -0.024460095277291569 -0.057606896013336642 -0.029193897687624933 -0.035123261628254458 -0.057426800693600302 -0.06268285277954519 -0.032388694752274835 -0.056899560478507763 -0.056908174469458721 -0.057015646597291636 -0.033439621852988051 -0.056699208130044899 -0.056881422827853946 -0.040545226612637902 -0.057076592224306048 -0.056824111842989383 -0.033647340398083245 -0.056911908354403497 -0.05690451301172629 -0.059427922774624421 -0.056891957955383425 -0.056967443544405728 -0.06340131587289595
leaf_weight=0.91352649615146464 37.806540975114331 0.46991431998321676 7.4657274830969964 0.029366412491071969 0.059025848575402051 0.17609693825943395 0.077191380842123181 0.051516563631594181 0.026694025553297251 0.026510051800869405 0.029903533402830362 0.014768409542739391 0.075182980508543551 0.030017798591870704 1.6010465234285218 0.21472393942531198 0.037380369147285819 0.029656793689355254 0.035632415616419166 1.4896624054526908 0.044978811114560813 0.07551379589131002 14.29057546146214 0.030669667990879002 0.055606461013667285 10.106673638103528 0.052525397855788469 0.31575407192576677 0.058228329755365849 0.057760785624850541
leaf_count=1330 45310 569 10842 51 21 323 134 9 46 7 18 26 29 11 2356 307 53 11 44 2179 36 109 20750 17 83 14763 37 464 95 10
internal_value=-3.37519e-09 -0.0567012 -0.0563711 -0.0527905 -0.0471677 -0.051076 -0.0458098 -0.0386086 -0.0339748 -0.0434495 -0.0328367 -0.0424967 -0.0575452 -0.0567803 -0.0561544 -0.052328 -0.0544522 -0.0465858 -0.0607588 -0.0568266 -0.0564342 -0.0509056 -0.0568511 -0.056775 -0.0486418 -0.0569461 -0.0572466 -0.0579525 -0.0599397 -0.0615089
internal_weight=75.7484 37.9418 10.4504 1.0718 0.491073 0.378843 0.202746 0.125555 0.11223 0.0532041 0.0961885 0.0446719 0.58073 9.37855 1.91283 0.311779 0.281761 0.0670372 0.110815 27.4915 1.61016 0.120493 25.8813 14.3769 0.0862761 11.5045 1.3978 0.484269 0.168515 0.110286
internal_count=100040 54730 14857 1277 635 561 238 104 74 53 53 44 642 13580 2738 382 371 64 73 39873 2324 145 37549 20850 100 16699 1936 606 142 47
is_linear=0
shrinkage=0.05


Tree=15
num_leaves=31
num_cat=0
split_feature=8 8 6 6 7 6 6 7 5 7 7 3 7 4 6 4 3 4 11 1 11 6 5 1 1 7 6 6 3 11
split_gain=93.8726 0.000633904 0.00183673 0.00711657 0.00425382 0.00217775 0.00979283 0.00722694 0.00527918 0.00481192 0.00850961 0.00456823 0.00310568 0.00464267 0.00151965 0.00389716 0.0013065 0.00296782 0.000840678 0.00793215 0.000720885 0.000199509 0.000677213 0.00197802 0.0054347 5.80111e-05 0.000128292 0.000842148 0.000106452 0.00023649
threshold=5.5000000000000009 2.5000000000000004 577.50000000000011 584.50000000000011 3.4500000000000006 1199.5000000000002 996.00000000000011 4.6500000000000012 1.5000000000000002 1.7500000000000002 1.6500000000000001 13.500000000000002 4.7500000000000009 144.50000000000003 1198.5000000000002 219.50000000000003 2.5000000000000004 818.50000000000011 -46579.609999999993 47272.700000000004 -46357.419999999991 599.50000000000011 2.5000000000000004 12728.495000000003 12531.155000000001 4.5500000000000007 722.50000000000011 730.50000000000011 1.5000000000000002 -3266.7749999999996
decision_type=2 2 2 2 2 2 2 2 2 2 2 2 2 2 2 2 2 2 2 2 2 2 2 2 2 2 2 2 2 2
left_child=1 25 -3 4 -4 6 18 9 12 10 11 -8 -9 -14 16 -16 17 -11 19 -5 -12 22 -20 24 -24 -1 -27 -28 29 -29
right_child=-2 2 3 5 -6 -7 7 8 -10 14 20 -13 13 -15 15 -17 -18 -19 21 -21 -22 -23 23 -25 -26 26 27 28 -30 -31
leaf_value=-0.056102594784975951 0.05616208678380772 -0.056275000926962318 -0.056781021544585732 -0.025229888029564149 -0.031214736879197166 -0.056299925732715785 -0.056634428396216491 -0.025416356491206535 -0.056564563540342366 -0.056357367715579101 -0.02332362911775224 -0.036359957770595523 -0.028398814713391077 -0.056937858443953326 -0.033442247124247149 -0.056333302108717599 -0.056366643479230975 -0.038128472044103495 -0.056291693375175381 -0.056321160743450865 -0.034368995544009934 -0.056309904102401588 -0.056332909172064655 -0.05632526854894529 -0.023082108790133428 -0.056052504595037314 -0.063088159507875538 -0.056051946281475008 -0.056320247253979244 -0.061760921229662438
leaf_weight=19.982093443803027 37.267131930915639 7.3064856255659816 0.024319212650880107 0.023149378073867299 0.049155689950566739 3.196269363630563 0.12188993848394591 0.051201741560362279 0.035543548059649765 0.063919261796399951 0.02221365092555061 0.035986323026008904 0.029087010596413165 0.027938047482166439 0.029646616952959448 0.049869994050823152 0.4403604096150957 0.03431557456497103 0.46864395961165506 0.18020950781647116 0.044097085599787533 2.4127734118956141 0.035169676528312266 0.11411638295976445 0.018888963444624096 1.498949006374459 0.050227792467921861 0.046967028174549341 0.97549326246371493 0.029554825974628107
leaf_count=24319 45310 13715 42 7 26 5977 218 16 64 119 2 28 13 48 18 93 819 28 882 339 41 4548 66 214 3 1837 7 58 1172 11
internal_value=-1.1148e-08 -0.0559648 -0.0557106 -0.0551615 -0.0396768 -0.0553145 -0.0545714 -0.0502065 -0.0398457 -0.051975 -0.0456998 -0.0520131 -0.034355 -0.0423808 -0.0542509 -0.0477987 -0.0552035 -0.0499896 -0.0558946 -0.0527819 -0.0306689 -0.0561021 -0.0553149 -0.0525931 -0.0447145 -0.0561315 -0.0563536 -0.0567631 -0.0564611 -0.0582569
internal_weight=74.6657 37.3985 14.8153 7.50876 0.0734749 7.43529 4.23902 0.986069 0.14377 0.842299 0.224187 0.157876 0.108227 0.0570251 0.618112 0.0795166 0.538595 0.0982348 3.25295 0.203359 0.0663107 3.04959 0.636819 0.168175 0.0540586 22.5833 2.60119 1.10224 1.05202 0.0765219
internal_count=100040 54730 27326 13611 68 13543 7566 1507 141 1366 289 246 77 61 1077 111 966 147 6059 346 43 5713 1165 283 69 27404 3085 1248 1241 69
is_linear=0
shrinkage=0.05


Tree=16
num_leaves=31
num_cat=0
split_feature=8 8 6 6 7 6 6 7 6 7 7 3 7 4 11 6 4 3 4 11 1 6 5 1 1 7 6 6 3 11
split_gain=90.2686 0.000632582 0.00169219 0.00630319 0.00387589 0.00201951 0.00937822 0.00695169 0.00519976 0.00460591 0.00815362 0.00448677 0.00306552 0.00319558 0.00159805 0.0014434 0.0037926 0.00125179 0.00290371 0.000739695 0.00720072 0.000162112 0.000553762 0.00164281 0.00472373 6.32355e-05 0.000133861 0.0010745 0.000110204 0.000248658
threshold=5.5000000000000009 2.5000000000000004 577.50000000000011 584.50000000000011 3.4500000000000006 1199.5000000000002 996.00000000000011 4.6500000000000012 1039.5000000000002 1.7500000000000002 1.6500000000000001 13.500000000000002 4.7500000000000009 298.50000000000006 -46357.419999999991 1198.5000000000002 219.50000000000003 2.5000000000000004 818.50000000000011 -46579.609999999993 47272.700000000004 599.50000000000011 2.5000000000000004 12728.495000000003 12531.155000000001 4.5500000000000007 722.50000000000011 730.50000000000011 1.5000000000000002 -3266.7749999999996
decision_type=2 2 2 2 2 2 2 2 2 2 2 2 2 2 2 2 2 2 2 2 2 2 2 2 2 2 2 2 2 2
left_child=1 25 -3 4 -4 6 19 9 12 10 11 -8 -9 -14 -12 17 -17 18 -11 20 -5 22 -21 24 -24 -1 -27 -28 29 -29
right_child=-2 2 3 5 -6 -7 7 8 -10 15 14 -13 13 -15 -16 16 -18 -19 -20 21 -22 -23 23 -25 -26 26 27 28 -30 -31
leaf_value=-0.055455359415140175 0.055507969873721488 -0.055607681829859014 -0.056056732955786281 -0.025306799333705957 -0.031325347021121351 -0.055629905614538989 -0.055926456604466573 -0.025128789059186352 -0.055731543653626925 -0.055680719204342893 -0.018893187471965459 -0.035520792117565994 -0.031254047310637245 -0.05649292179046659 -0.035691532799807378 -0.032720305587157821 -0.055659462576968133 -0.055688988031207268 -0.03737972206956406 -0.055622497142259857 -0.055648653946471505 -0.05563860206360885 -0.055659109472758234 -0.055652317826154256 -0.023891962472999143 -0.055410036974148258 -0.063418017532003088 -0.055409541479352432 -0.055657237903386537 -0.061386823928505113
leaf_weight=19.672730023390617 36.684280821820721 7.1951449119951558 0.023929487331770249 0.021975137758999952 0.04687528609065339 3.1475331818219274 0.12000515585532401 0.052482008584775031 0.035741424711886793 0.062947080703452229 0.021230802580248564 0.034735880326479673 0.028527043294161558 0.022381026006769389 0.042497753107454628 0.028461984125897288 0.049107688129879534 0.43371160031529143 0.033056433487217873 0.46150400151964355 0.17746407457161695 2.376073498162441 0.034633925068192184 0.11237449658801779 0.017673947499133646 1.4761224930989549 0.048470482288394012 0.046253974898718297 0.95878202491439879 0.027891361445653962
leaf_count=24319 45310 13715 42 7 26 5977 218 22 67 119 2 28 15 37 41 18 93 819 28 882 339 4548 66 214 3 1837 7 58 1172 11
internal_value=4.35718e-09 -0.0553179 -0.055062 -0.0545303 -0.0396837 -0.054674 -0.0539519 -0.0496308 -0.0392915 -0.0513729 -0.045147 -0.0513458 -0.0336083 -0.04235 -0.0300953 -0.0536126 -0.0472426 -0.0545454 -0.0493792 -0.0552541 -0.0523054 -0.05545 -0.0547343 -0.0522452 -0.0449255 -0.0554858 -0.0557196 -0.0561423 -0.0558009 -0.057658
internal_weight=73.4946 36.8103 14.5801 7.38492 0.0708048 7.31412 4.16658 0.964886 0.139132 0.825754 0.21847 0.154741 0.10339 0.0509081 0.0637286 0.607285 0.0775697 0.529715 0.0960035 3.2017 0.199439 3.00226 0.626186 0.164682 0.0523079 22.2303 2.55752 1.0814 1.03293 0.0741453
internal_count=100040 54730 27326 13611 68 13543 7566 1507 141 1366 289 246 74 52 43 1077 111 966 147 6059 346 5713 1165 283 69 27404 3085 1248 1241 69
is_linear=0
shrinkage=0.05


Tree=17
num_leaves=31
num_cat=0
split_feature=8 8 6 6 7 6 6 7 5 7 7 3 7 4 11 6 4 3 4 11 1 6 5 1 1 7 6 6 3 11
split_gain=86.9022 0.00063352 0.00157533 0.00570431 0.00359661 0.00188745 0.00898214 0.00666583 0.00509255 0.00442176 0.00784876 0.00438883 0.00417299 0.0035396 0.00267477 0.00137386 0.00369152 0.00120122 0.00283333 0.000661528 0.00663867 0.00013681 0.000470346 0.0014147 0.00424583 6.16184e-05 0.000128911 0.0011409 0.000100976 0.000240782
threshold=5.5000000000000009 2.5000000000000004 577.50000000000011 584.50000000000011 3.4500000000000006 1199.5000000000002 996.00000000000011 4.6500000000000012 1.5000000000000002 1.7500000000000002 1.6500000000000001 13.500000000000002 4.7500000000000009 178.50000000000003 -46357.419999999991 1198.5000000000002 219.50000000000003 2.5000000000000004 818.50000000000011 -46579.609999999993 47272.700000000004 599.50000000000011 2.5000000000000004 12728.495000000003 12531.155000000001 4.5500000000000007 722.50000000000011 730.50000000000011 1.5000000000000002 -3266.7749999999996
decision_type=2 2 2 2 2 2 2 2 2 2 2 2 2 2 2 2 2 2 2 2 2 2 2 2 2 2 2 2 2 2
left_child=1 25 -3 4 -4 6 19 9 12 10 11 -8 -9 -14 -12 17 -17 18 -11 20 -5 22 -21 24 -24 -1 -27 -28 29 -29
right_child=-2 2 3 5 -6 -7 7 8 -10 15 14 -13 13 -15 -16 16 -18 -19 -20 21 -22 -23 23 -25 -26 26 27 28 -30 -31
leaf_value=-0.054884711875967856 0.05492974263894277 -0.05501798613817728 -0.055417323624379955 -0.025220456795374636 -0.031266142304666865 -0.055037696406793839 -0.055301070551515868 -0.022149017905843102 -0.055300696008200895 -0.055083034813000267 -0.014753450934074833 -0.034824615184355527 -0.029806534309672506 -0.055559149777084385 -0.036921093735003782 -0.032076240262524813 -0.05506409249596133 -0.055090265693273778 -0.036748315541348407 -0.055031171750020182 -0.055054426333149456 -0.055045461099497595 -0.055063715621420407 -0.055057672193191 -0.024203333787201967 -0.054842070858581206 -0.063324980306236331 -0.054841597519504653 -0.055082844031712055 -0.060878980817290679
leaf_weight=19.342839263903446 36.062395771266893 7.075894824578425 0.023514853906817623 0.020877232484053709 0.044755647599231452 3.0951097800279967 0.11806625564349804 0.046554875036235899 0.034790802339557558 0.061902344692498446 0.020348204008769244 0.033620220725424588 0.026791509881149977 0.026581047743093222 0.041079526650719345 0.027355043450370431 0.048300396301783621 0.42648997250944376 0.031945032707881182 0.45388077013194639 0.17451757576782256 2.3366200719028711 0.034058608696796 0.110506200871896 0.016566999605856836 1.4520425366936245 0.045366405276581534 0.045502189313992858 0.9419365226640366 0.02592303429264553
leaf_count=24319 45310 13715 42 7 26 5977 218 16 64 119 2 28 14 47 41 18 93 819 28 882 339 4548 66 214 3 1837 7 58 1172 11
internal_value=-3.78024e-09 -0.0547455 -0.0544872 -0.0539694 -0.0395847 -0.0541061 -0.0534012 -0.0491231 -0.0388254 -0.0508377 -0.0446564 -0.0507626 -0.0330893 -0.0426321 -0.029578 -0.053048 -0.0467523 -0.0539633 -0.048842 -0.0546843 -0.0518668 -0.0548708 -0.0542073 -0.0518866 -0.0449648 -0.054915 -0.055148 -0.0555676 -0.0552203 -0.0570328
internal_weight=72.2461 36.1837 14.3301 7.25423 0.0682705 7.18596 4.09085 0.943825 0.134718 0.809107 0.213114 0.151686 0.0999274 0.0533726 0.0614277 0.595993 0.0756554 0.520337 0.0938474 3.14703 0.195395 2.95163 0.615013 0.161132 0.0506256 21.8536 2.51077 1.05873 1.01336 0.0714252
internal_count=100040 54730 27326 13611 68 13543 7566 1507 141 1366 289 246 77 61 43 1077 111 966 147 6059 346 5713 1165 283 69 27404 3085 1248 1241 69
is_linear=0
shrinkage=0.05


Tree=18
num_leaves=31
num_cat=0
split_feature=8 8 6 6 7 3 0 1 1 4 4 6 7 6 4 6 6 7 11 1 6 5 1 1 7 6 6 3 11 11
split_gain=83.7417 0.000617686 0.00147312 0.0125251 0.00767454 0.00493597 0.00435777 0.00320231 0.00387156 0.00223792 0.0083283 0.00110825 0.00411677 0.00133712 0.00313436 0.00033179 0.00546627 0.00330207 0.000589392 0.00609614 0.000115436 0.000399168 0.00121695 0.00381362 5.90106e-05 0.000122139 0.00117251 9.23194e-05 0.000232191 7.07326e-05
threshold=5.5000000000000009 2.5000000000000004 996.00000000000011 999.50000000000011 4.6500000000000012 2.5000000000000004 1.5000000000000002 16237.475000000002 44792.935000000005 755.50000000000011 759.50000000000011 1199.5000000000002 1.1500000000000001 1198.5000000000002 219.50000000000003 577.50000000000011 584.50000000000011 3.4500000000000006 -46579.609999999993 47272.700000000004 599.50000000000011 2.5000000000000004 12728.495000000003 12531.155000000001 4.5500000000000007 722.50000000000011 730.50000000000011 1.5000000000000002 -3266.7749999999996 -35836.30999999999
decision_type=2 2 2 2 2 2 2 2 2 2 2 2 2 2 2 2 2 2 2 2 2 2 2 2 2 2 2 2 2 2
left_child=1 24 15 4 5 6 -4 -6 -9 -7 -11 12 -5 -14 -15 -3 17 -17 19 -18 21 -20 23 -23 -1 -26 -27 28 -28 -29
right_child=-2 2 3 11 7 9 -8 8 -10 10 -12 -13 13 14 -16 16 18 -19 20 -21 -22 22 -24 -25 25 26 27 29 -30 -31
leaf_value=-0.054378510000941155 0.054417328455286296 -0.054495484473814297 -0.029491588456009396 -0.035124594608129216 -0.023622490366831561 -0.054611813884579308 -0.054899433967447286 -0.054998643633593483 -0.026220198266393571 -0.0161796825533548 -0.054846180917487532 -0.054513117298644234 -0.054546948078234563 -0.03459285402505894 -0.054549974895020885 -0.054851318069626669 -0.025237695922492268 -0.031377076482204697 -0.054507272446572531 -0.054527937911501269 -0.054520061635105213 -0.054536280634099744 -0.054530892138344104 -0.024538534281020579 -0.05433868809377812 -0.063202872377347605 -0.054338267524177176 -0.055372658421967993 -0.060425466444265274 -0.054333753206345092
leaf_weight=18.994402489683129 35.406844923272729 6.9496447398560104 0.052934018429368179 0.03387521562399376 0.048288706107996404 0.19841875956626609 0.02477427531266585 0.02575765666551888 0.02139311796054244 0.019215031468775123 0.050593229825608432 3.0398015129030682 0.36006078665377572 0.030101608484983444 0.056793383555486798 0.023079597740434443 0.019818346598185932 0.042693936673458666 0.44577821600250933 0.17140184791060165 2.2949606488109566 0.033449972688686103 0.10853218502597883 0.015506518655456603 1.4265338018885807 0.04231915943091713 0.04470487282378599 0.21288646815810353 0.024116936372593045 0.71106256125494838
leaf_count=24319 45310 13715 36 31 21 384 45 46 7 3 93 5977 705 25 111 42 7 26 882 339 4548 66 214 3 1837 7 58 249 11 923
internal_value=1.97688e-09 -0.0542395 -0.053982 -0.0531649 -0.0452251 -0.0486881 -0.0375919 -0.0326727 -0.0419414 -0.0519029 -0.0442031 -0.0541603 -0.0519298 -0.0532035 -0.0476366 -0.0543024 -0.0538772 -0.0396141 -0.0541809 -0.0514923 -0.0543583 -0.0537428 -0.051579 -0.0450348 -0.0544084 -0.0546387 -0.0550522 -0.0547047 -0.0564714 -0.0545731
internal_weight=70.9297 35.5229 14.0669 3.96201 0.441375 0.345935 0.0777083 0.0954395 0.0471508 0.268227 0.0698083 3.52063 0.480831 0.446956 0.086895 10.1049 3.15522 0.0657735 3.08945 0.19122 2.89823 0.603267 0.157489 0.0489565 21.456 2.46162 1.03509 0.992771 0.0688218 0.923949
internal_count=100040 54730 27326 7484 635 561 81 74 53 480 96 6849 872 841 136 19842 6127 68 6059 346 5713 1165 283 69 27404 3085 1248 1241 69 1172
is_linear=0
shrinkage=0.05


Tree=19
num_leaves=31
num_cat=0
split_feature=8 8 6 6 7 3 1 1 1 1 4 4 6 7 6 4 6 6 7 6 5 1 1 1 7 6 6 3 11 11
split_gain=80.7569 0.000603623 0.00139145 0.0116965 0.00738472 0.00474606 0.00426455 0.00306454 0.00376697 0.00294618 0.00202697 0.00778295 0.00106516 0.00400561 0.00128442 0.00305461 0.000297465 0.00412633 0.00260641 0.000548714 0.00181169 0.00305463 0.0015176 0.0048107 5.2243e-05 0.000109143 0.00109683 8.41635e-05 0.000222725 6.53583e-05
threshold=5.5000000000000009 2.5000000000000004 996.00000000000011 999.50000000000011 4.6500000000000012 2.5000000000000004 48242.420000000006 16237.475000000002 44792.935000000005 16034.175000000001 755.50000000000011 759.50000000000011 1199.5000000000002 1.1500000000000001 1198.5000000000002 219.50000000000003 577.50000000000011 584.50000000000011 3.4500000000000006 599.50000000000011 2.5000000000000004 47074.985000000008 12728.495000000003 12531.155000000001 4.5500000000000007 722.50000000000011 730.50000000000011 1.5000000000000002 -3266.7749999999996 -35836.30999999999
decision_type=2 2 2 2 2 2 2 2 2 2 2 2 2 2 2 2 2 2 2 2 2 2 2 2 2 2 2 2 2 2
left_child=1 24 16 4 5 6 9 -6 -9 -4 -7 -12 13 -5 -15 -16 -3 18 -18 20 -19 22 23 -22 -1 -26 -27 28 -28 -29
right_child=-2 2 3 12 7 10 -8 8 -10 -11 11 -13 -14 14 15 -17 17 19 -20 -21 21 -23 -24 -25 25 26 27 29 -30 -31
leaf_value=-0.053930026763195686 0.053962183739307813 -0.054031592706406034 -0.030982143051824743 -0.034645198565013469 -0.023314373482543272 -0.054135424419448033 -0.017725078900486826 -0.054480433579435994 -0.025566711272643202 -0.054441166526802059 -0.01608000343410846 -0.05434448751418236 -0.054047229535953069 -0.054077554611708691 -0.034086087398862257 -0.054080254582052747 -0.054349130335685995 -0.054047669290430589 -0.033144612679006723 -0.054054229511933165 -0.054067999671195369 -0.031759245000245503 -0.05406318133546404 -0.019899326241305127 -0.053891560581788359 -0.062833572241056374 -0.053891200201024114 -0.054897746006203098 -0.060014365502267776 -0.053887197342766813
leaf_weight=18.630823500338014 34.721987865166739 6.817484087252522 0.023158197145675685 0.032837849517818873 0.046272517589386553 0.19461998582119122 0.020318258088082075 0.025247562007280067 0.020340024726465344 0.031709776114439592 0.018151262425817549 0.049609113455517218 2.9818394875037484 0.35319419219740666 0.029070707794744521 0.055709271051455289 0.022627230850048696 0.46818495306069996 0.040307159244548529 2.3828182305733208 0.032813385303597897 0.024573885486461222 0.10646626475499943 0.015015084703918546 1.3997579973074601 0.03865161776775472 0.043865787331014872 0.20761386671802029 0.022452541568782181 0.69770439428975806
leaf_count=24319 45310 13715 17 31 21 384 6 46 7 58 3 93 5977 705 25 111 42 943 26 4813 66 20 214 3 1837 7 58 249 11 923
internal_value=-3.52534e-09 -0.0537898 -0.0535328 -0.0527304 -0.0449483 -0.0483686 -0.0372934 -0.032379 -0.0415799 -0.0445398 -0.0515423 -0.0440944 -0.0536983 -0.0514881 -0.052751 -0.0472243 -0.0538471 -0.0534404 -0.0407684 -0.0537036 -0.0524124 -0.048132 -0.0507396 -0.0433412 -0.0539584 -0.0541774 -0.0545735 -0.0542449 -0.0559642 -0.0541189
internal_weight=69.5552 34.8332 13.7924 3.88208 0.429427 0.337567 0.0751862 0.0918601 0.0455876 0.054868 0.26238 0.0677604 3.45265 0.470812 0.437974 0.08478 9.91029 3.09281 0.0629344 3.02987 0.647054 0.178869 0.154295 0.0478285 21.0409 2.41005 1.01029 0.971637 0.0663183 0.905318
internal_count=100040 54730 27326 7484 635 561 81 74 53 75 480 96 6849 872 841 136 19842 6127 68 6059 1246 303 283 69 27404 3085 1248 1241 69 1172
is_linear=0
shrinkage=0.05


Tree=20
num_leaves=31
num_cat=0
split_feature=8 8 6 6 7 3 1 1 1 1 4 4 6 7 6 4 6 6 7 11 1 6 5 1 1 7 6 6 3 11
split_gain=77.9251 0.000587444 0.00130411 0.0108645 0.00713344 0.00444774 0.00403543 0.00293648 0.00366008 0.00279101 0.00184682 0.00730869 0.00102339 0.00388781 0.00123298 0.00296958 0.000271566 0.00386101 0.002486 0.000494408 0.00557605 0.000122339 0.00042857 0.00132218 0.00435396 4.63404e-05 9.76385e-05 0.00102651 7.66236e-05 0.000212938
threshold=5.5000000000000009 2.5000000000000004 996.00000000000011 999.50000000000011 4.6500000000000012 2.5000000000000004 48242.420000000006 16237.475000000002 44792.935000000005 16034.175000000001 755.50000000000011 759.50000000000011 1199.5000000000002 1.1500000000000001 1198.5000000000002 219.50000000000003 577.50000000000011 584.50000000000011 3.4500000000000006 -46579.609999999993 47272.700000000004 599.50000000000011 2.5000000000000004 12728.495000000003 12531.155000000001 4.5500000000000007 722.50000000000011 730.50000000000011 1.5000000000000002 -3266.7749999999996
decision_type=2 2 2 2 2 2 2 2 2 2 2 2 2 2 2 2 2 2 2 2 2 2 2 2 2 2 2 2 2 2
left_child=1 25 16 4 5 6 9 -6 -9 -4 -7 -12 13 -5 -15 -16 -3 18 -18 20 -19 22 -21 24 -24 -1 -27 -28 29 -29
right_child=-2 2 3 12 7 10 -8 8 -10 -11 11 -13 -14 14 15 -17 17 19 -20 21 -22 -23 23 -25 -26 26 27 28 -30 -31
leaf_value=-0.053530826722546027 0.053557239027889406 -0.053618930564168624 -0.030779844150979604 -0.034246088878546896 -0.023049472520514886 -0.05371168703904116 -0.017630844717597176 -0.054019879154505027 -0.024984572807629914 -0.053984822820988369 -0.015933409705082918 -0.05389841672065121 -0.053632890933351746 -0.053659976714285552 -0.033657249378503361 -0.053662362039030347 -0.053902671988010881 -0.024165279170761063 -0.032881260362380448 -0.053628250039234208 -0.053649618863356063 -0.053638476769246629 -0.053651422448369436 -0.053647137486446006 -0.020329966216103793 -0.05349368570186034 -0.062513567462501946 -0.053493361040364673 -0.05371423080587763 -0.059643664403322583
leaf_weight=18.25324592815014 34.011874074116349 6.6800924983690475 0.022238446748814922 0.031861241965089326 0.044361877487972379 0.190676583442837 0.019327295070979744 0.02472126524662599 0.019348514208104461 0.031051136960741132 0.017151748819742352 0.048589496203931049 2.921636597980978 0.34606241341680288 0.028099567862227559 0.054586410202318802 0.022159142681630661 0.017761779308785086 0.038499858579598367 0.42846685406402718 0.16499595029745251 2.2059196639747825 0.032150355662452057 0.10431739501655102 0.014104064786806703 1.3718375480966636 0.035339183814357855 0.042988170811440796 0.88600240892264992 0.02092330070445314
leaf_count=24319 45310 13715 17 31 21 384 6 46 7 58 3 93 5977 705 25 111 42 7 26 882 339 4548 66 214 3 1837 7 58 1172 11
internal_value=1.62661e-08 -0.0533898 -0.0531335 -0.0523482 -0.0447381 -0.0481265 -0.0372027 -0.0321307 -0.0412721 -0.0443011 -0.0512201 -0.0439934 -0.0532876 -0.0510971 -0.0523493 -0.0468639 -0.0534409 -0.0530481 -0.0405605 -0.0533034 -0.0507841 -0.0534687 -0.0528219 -0.0505272 -0.0434909 -0.0535578 -0.0537664 -0.0541461 -0.0538348 -0.0555068
internal_weight=68.1304 34.1185 13.5082 3.79971 0.417466 0.329035 0.0726169 0.0884317 0.0440698 0.0532896 0.256418 0.0657412 3.38225 0.46061 0.428748 0.082686 9.70847 3.02838 0.060659 2.96772 0.182758 2.78496 0.579039 0.150572 0.0462544 20.6103 2.35709 0.985253 0.949914 0.0639115
internal_count=100040 54730 27326 7484 635 561 81 74 53 75 480 96 6849 872 841 136 19842 6127 68 6059 346 5713 1165 283 69 27404 3085 1248 1241 69
is_linear=0
shrinkage=0.05


Tree=21
num_leaves=31
num_cat=0
split_feature=8 8 6 6 3 7 1 4 4 7 6 7 6 4 6 6 7 11 1 6 5 1 1 7 6 6 3 11 11 11
split_gain=75.2261 0.000569371 0.00122652 0.0101212 0.00632423 0.00610917 0.00548167 0.00454546 0.00638829 0.00214178 0.000983568 0.00376806 0.00118382 0.00288208 0.000247196 0.00363134 0.0023786 0.000451274 0.00521605 0.000106652 0.000375401 0.00117041 0.00399731 4.11224e-05 8.7271e-05 0.00101563 7.0442e-05 0.000202502 5.03036e-05 0.000623697
threshold=5.5000000000000009 2.5000000000000004 996.00000000000011 999.50000000000011 8.5000000000000018 4.6500000000000012 48242.420000000006 755.50000000000011 826.50000000000011 4.7500000000000009 1199.5000000000002 1.1500000000000001 1198.5000000000002 219.50000000000003 577.50000000000011 584.50000000000011 3.4500000000000006 -46579.609999999993 47272.700000000004 599.50000000000011 2.5000000000000004 12728.495000000003 12531.155000000001 4.5500000000000007 722.50000000000011 730.50000000000011 1.5000000000000002 -3266.7749999999996 -35836.30999999999 -36032.249999999993
decision_type=2 2 2 2 2 2 2 2 2 2 2 2 2 2 2 2 2 2 2 2 2 2 2 2 2 2 2 2 2 2
left_child=1 23 14 4 5 6 7 -4 -9 -7 11 -5 -13 -14 -3 16 -16 18 -17 20 -19 22 -22 -1 -25 -26 27 -27 29 -28
right_child=-2 2 3 10 -6 9 -8 8 -10 -11 -12 12 13 -15 15 17 -18 19 -20 -21 21 -23 -24 24 25 26 28 -29 -30 -31
leaf_value=-0.053174812383673845 0.053196155477435864 -0.053251104766294299 -0.053421604383664084 -0.033909012927303854 -0.05332899551259937 -0.018219899683742487 -0.021385949629021763 -0.02264989165647642 -0.053841259805276501 -0.036161033427840591 -0.053263615324140659 -0.053287873467318558 -0.033291435375272106 -0.053289950544927717 -0.05350502360386572 -0.024084729521634818 -0.03262773691729301 -0.053259471531278108 -0.053278633256724828 -0.053268633296680759 -0.053280215381044244 -0.053276387217076275 -0.020550116905419857 -0.053139008313636243 -0.062408434226565418 -0.053138717087900203 -0.053128410625735027 -0.059300929080367541 -0.053134791741913615 -0.062706558844669122
leaf_weight=17.863374154956549 33.28000013763085 6.5381359564489667 0.1137346993782552 0.030934351496398782 0.13632355636218563 0.03410326800076291 0.022897642920725048 0.035839285759720951 0.030288873997051269 0.032475345389684662 2.8594651670136955 0.33869398906244896 0.02718238061061129 0.053422356286318973 0.021677461831132283 0.016901555703953242 0.036810583318583667 0.4193488712771799 0.16148710361449048 2.1590464370092377 0.031465993059100583 0.10210164997261018 0.0132594786118716 1.3428515606792637 0.032811490644235053 0.042076401761732996 0.17765935341594741 0.019515659892931581 0.66953258612193167 0.018794129777234048
leaf_count=24319 45310 13715 228 31 281 10 14 19 53 30 5977 705 25 111 42 7 26 882 339 4548 66 214 3 1837 7 58 245 11 923 4
internal_value=-5.72771e-09 -0.0530333 -0.0527782 -0.052008 -0.0445538 -0.0401124 -0.0444274 -0.0473607 -0.0369366 -0.0269711 -0.0529216 -0.0507494 -0.0519918 -0.0465458 -0.0530794 -0.0527005 -0.0403655 -0.052949 -0.0505126 -0.0531085 -0.0524976 -0.0503218 -0.0435769 -0.0532005 -0.0533993 -0.0537632 -0.0534574 -0.0550912 -0.0533412 -0.0540447
internal_weight=66.6622 33.3822 13.2156 3.71536 0.405663 0.269339 0.202761 0.179863 0.0661282 0.0665786 3.3097 0.450233 0.419299 0.0806047 9.50024 2.9621 0.058488 2.90361 0.178389 2.72522 0.566176 0.146827 0.0447255 20.1666 2.30324 0.96039 0.927578 0.0615921 0.865986 0.196453
internal_count=100040 54730 27326 7484 635 354 314 300 72 40 6849 872 841 136 19842 6127 68 6059 346 5713 1165 283 69 27404 3085 1248 1241 69 1172 249
is_linear=0
shrinkage=0.05


Tree=22
num_leaves=31
num_cat=0
split_feature=8 8 6 6 7 3 1 1 13 1 4 4 6 7 6 4 6 6 7 11 1 6 5 1 1 7 6 6 3 11
split_gain=72.6436 0.000548645 0.00115268 0.00944199 0.0066206 0.00388703 0.00374644 0.00294383 0.00340087 0.00245415 0.00158609 0.00641503 0.000939773 0.00362612 0.00112948 0.00277624 0.000224891 0.0033963 0.00226143 0.000411557 0.00487102 9.34428e-05 0.000330446 0.00104048 0.00368238 3.59139e-05 7.70089e-05 0.000950149 6.44047e-05 0.000192499
threshold=5.5000000000000009 2.5000000000000004 996.00000000000011 999.50000000000011 4.6500000000000012 2.5000000000000004 48242.420000000006 16237.475000000002 1.5000000000000002 16034.175000000001 755.50000000000011 763.50000000000011 1199.5000000000002 1.1500000000000001 1198.5000000000002 219.50000000000003 577.50000000000011 584.50000000000011 3.4500000000000006 -46579.609999999993 47272.700000000004 599.50000000000011 2.5000000000000004 12728.495000000003 12531.155000000001 4.5500000000000007 722.50000000000011 730.50000000000011 1.5000000000000002 -3266.7749999999996
decision_type=2 2 2 2 2 2 2 2 2 2 2 2 2 2 2 2 2 2 2 2 2 2 2 2 2 2 2 2 2 2
left_child=1 25 16 4 5 6 9 -6 -9 -4 -7 -12 13 -5 -15 -16 -3 18 -18 20 -19 22 -21 24 -24 -1 -27 -28 29 -29
right_child=-2 2 3 12 7 10 -8 8 -10 -11 11 -13 -14 14 15 -17 17 19 -20 21 -22 -23 23 -25 -26 26 27 28 -30 -31
leaf_value=-0.05285697945882304 0.052873949188690109 -0.052922835699827066 -0.030676500668123708 -0.03368051582549373 -0.022151061022504515 -0.052999321733499874 -0.017188368695530122 -0.053427776546953645 -0.024479034814466571 -0.053220180268287287 -0.01624351454436004 -0.053158328025561086 -0.052934092087539221 -0.052955710296418636 -0.033039850586966381 -0.052957631149129242 -0.053150276578562854 -0.024066520640203218 -0.032475793895652458 -0.052930316492421851 -0.052947475801766099 -0.052938498247689383 -0.052948895498320048 -0.052945465265073155 -0.02073490178016878 -0.052822356235042091 -0.062157188916330722 -0.052822094382391875 -0.053013684602614679 -0.058994146495117451
leaf_weight=17.463342460221615 32.529396624886431 6.3916616307978966 0.020326940051745068 0.030042759201024061 0.040447807463351637 0.18252954917261377 0.017498257162515074 0.023835805419366807 0.017663860722677782 0.029728255525697023 0.015800878521986306 0.046121617662720382 2.7962647727108561 0.33111602597637102 0.026305978419259191 0.052233097434509546 0.021184084878769105 0.016087037336547261 0.035212603455875069 0.40999194778851267 0.1578838998102583 2.1108659107412677 0.030763201386434957 0.099821984447771683 0.012465919367969036 1.3131069008377374 0.030088087660260388 0.041141826310195029 0.84557470120489597 0.018231159192509949
leaf_count=24319 45310 13715 17 31 21 384 6 44 9 58 4 92 5977 705 25 111 42 7 26 882 339 4548 66 214 3 1837 7 58 1172 11
internal_value=1.8801e-09 -0.0527152 -0.0524619 -0.0517064 -0.0443979 -0.0477197 -0.0371035 -0.0317502 -0.0411061 -0.0440654 -0.0506535 -0.0437387 -0.0525962 -0.0504474 -0.0516771 -0.0462863 -0.0527573 -0.0523916 -0.0402417 -0.052633 -0.0502769 -0.0527869 -0.0522084 -0.0501393 -0.0436594 -0.0528812 -0.0530693 -0.0534161 -0.0531255 -0.0547173
internal_weight=65.1567 32.6273 12.9159 3.62992 0.393953 0.312005 0.0675535 0.0819475 0.0414997 0.0500552 0.244452 0.0619225 3.23596 0.439698 0.409655 0.0785391 9.28594 2.89428 0.0563967 2.83788 0.173971 2.66391 0.553043 0.143051 0.0432291 19.7115 2.24814 0.935036 0.904948 0.059373
internal_count=100040 54730 27326 7484 635 561 81 74 53 75 480 96 6849 872 841 136 19842 6127 68 6059 346 5713 1165 283 69 27404 3085 1248 1241 69
is_linear=0
shrinkage=0.05


Tree=23
num_leaves=31
num_cat=0
split_feature=8 8 6 6 3 7 1 4 4 7 6 7 6 4 6 6 7 11 1 6 5 1 1 7 6 6 3 11 11 11
split_gain=70.1636 0.000527175 0.00102994 0.00883952 0.00561931 0.00584369 0.00487401 0.00398248 0.00582229 0.00203597 0.000792525 0.00355181 0.000823948 0.00207003 0.000223984 0.00316504 0.00214805 0.00050219 0.00584347 8.25934e-05 0.00029335 0.000932297 0.00306858 3.15307e-05 6.81914e-05 0.000922318 5.92079e-05 0.000182338 3.63586e-05 0.000513993
threshold=5.5000000000000009 2.5000000000000004 996.00000000000011 999.50000000000011 8.5000000000000018 4.6500000000000012 48242.420000000006 755.50000000000011 826.50000000000011 4.7500000000000009 1199.5000000000002 1.1500000000000001 1198.5000000000002 219.50000000000003 577.50000000000011 584.50000000000011 3.4500000000000006 -46579.609999999993 47272.700000000004 599.50000000000011 2.5000000000000004 12728.495000000003 12348.970000000001 4.5500000000000007 722.50000000000011 730.50000000000011 1.5000000000000002 -3266.7749999999996 -35836.30999999999 -36032.249999999993
decision_type=2 2 2 2 2 2 2 2 2 2 2 2 2 2 2 2 2 2 2 2 2 2 2 2 2 2 2 2 2 2
left_child=1 23 14 4 5 6 7 -4 -9 -7 11 -5 -13 -14 -3 16 -16 18 -17 20 -19 22 -22 -1 -25 -26 27 -27 29 -28
right_child=-2 2 3 10 -6 9 -8 8 -10 -11 -12 12 13 -15 15 17 -18 19 -20 -21 21 -23 -24 24 25 26 28 -29 -30 -31
leaf_value=-0.052572768998994962 0.05258583306947219 -0.052629394056061075 -0.052770978517925927 -0.033490966518020471 -0.052699646373152248 -0.017296201092028948 -0.02154479221487364 -0.022225124120961337 -0.053110412578915127 -0.035581237855901317 -0.052639495588117313 -0.052658906998556299 -0.035120942351612359 -0.052660649001316832 -0.05283337042248834 -0.020624282965447827 -0.032364068833495567 -0.052636105277247824 -0.052651522016149789 -0.052643454294796548 -0.052651774559141988 -0.052649713198600762 -0.023154022976185962 -0.052539285204668155 -0.062051483409498315 -0.052539062977773887 -0.052530256962619086 -0.058710040765581339 -0.052535386486417084 -0.061991190181661784
leaf_weight=17.054627445351805 31.763196618179791 6.2424150131118932 0.10873494815314133 0.029192812682595437 0.13046510133426636 0.030484873452223837 0.021092382085043937 0.032274753553792834 0.028943192737642676 0.030410086183110252 2.7308978799846955 0.32339848831179552 0.025098218349739909 0.051011685922276229 0.020680745656136756 0.015691262087785041 0.033705704030580819 0.40041568287415463 0.15420377315604128 2.0615770129370503 0.029122608422767371 0.097489740670425817 0.012644601491047069 1.2822813711245538 0.027925550763029494 0.040189836348872632 0.169685963250231 0.017048210313078016 0.63952965330099687 0.015682656492572278
leaf_count=24319 45310 13715 228 31 281 10 14 19 53 30 5977 705 25 111 42 7 26 882 339 4548 64 214 5 1837 7 58 245 11 923 4
internal_value=2.17929e-08 -0.0524311 -0.0521798 -0.0514568 -0.0442769 -0.0399153 -0.0442145 -0.047028 -0.0368274 -0.0264275 -0.0523257 -0.0503271 -0.0515573 -0.0468767 -0.0524622 -0.0520928 -0.0401476 -0.0523273 -0.0496935 -0.0524993 -0.0519486 -0.0499719 -0.0437216 -0.0525957 -0.0527742 -0.0531052 -0.052822 -0.0543771 -0.0527141 -0.0533307
internal_weight=63.6201 31.8569 12.61 3.542 0.382405 0.25194 0.191045 0.169953 0.0612179 0.060895 3.1596 0.428701 0.399508 0.0761099 9.06795 2.82553 0.0543864 2.77114 0.169895 2.60125 0.539673 0.139257 0.0417672 19.247 2.19234 0.910062 0.882136 0.057238 0.824898 0.185369
internal_count=100040 54730 27326 7484 635 354 314 300 72 40 6849 872 841 136 19842 6127 68 6059 346 5713 1165 283 69 27404 3085 1248 1241 69 1172 249
is_linear=0
shrinkage=0.05


Tree=24
num_leaves=31
num_cat=0
split_feature=8 8 6 6 7 11 1 3 7 3 7 11 11 4 4 6 6 0 3 6 4 4 3 4 6 5 1 1 7 6
split_gain=67.7735 0.000507145 0.000933309 0.00277598 0.00204942 0.00116935 0.00620939 0.00368713 0.00127916 0.00242018 0.00418184 0.00242229 0.00479438 0.00147925 0.00495504 0.000275357 0.00182525 0.00477531 0.00523672 0.000460222 0.00190256 0.00487399 0.00161484 0.00203643 7.94071e-05 0.000273023 0.000852215 0.00287332 2.76239e-05 6.03264e-05
threshold=5.5000000000000009 2.5000000000000004 577.50000000000011 584.50000000000011 3.4500000000000006 -46579.609999999993 47272.700000000004 1.5000000000000002 4.6500000000000012 1.5000000000000002 4.7500000000000009 -43881.349999999991 -44096.039999999994 85.500000000000014 81.500000000000014 1199.5000000000002 1129.0000000000002 2.5000000000000004 12.500000000000002 996.00000000000011 755.50000000000011 759.50000000000011 2.5000000000000004 850.50000000000011 599.50000000000011 2.5000000000000004 12728.495000000003 12348.970000000001 4.5500000000000007 722.50000000000011
decision_type=2 2 2 2 2 2 2 2 2 2 2 2 2 2 2 2 2 2 2 2 2 2 2 2 2 2 2 2 2 2
left_child=1 28 -3 4 -4 6 -5 -8 15 10 -10 12 -11 14 -13 16 19 -18 -19 24 -21 -22 23 -23 25 -7 27 -27 -1 -30
right_child=-2 2 3 5 -6 8 7 -9 9 11 -12 13 -14 -15 -16 -17 17 18 -20 20 21 22 -24 -25 -26 26 -28 -29 29 -31
leaf_value=-0.052318343177538987 0.052327875979977893 -0.052366787196124504 -0.052549871745418156 -0.017518735921681631 -0.032236944671959658 -0.052372634779707633 -0.033872381610006802 -0.052404432546270543 -0.021569832887120086 -0.052422109442630385 -0.052496000051709492 -0.052455842151969578 -0.014219494775079148 -0.052410972780586977 -0.016792259334868827 -0.052375995592063407 -0.052471353551398862 -0.05243594718716757 -0.019112759553467317 -0.052430676943855538 -0.019325202025709382 -0.026757642822108629 -0.052512748912360699 -0.05277830344965985 -0.052379538501339751 -0.052387092207652919 -0.052385352022334276 -0.023097912880254982 -0.05228588374411372 -0.052825283760165966
leaf_weight=16.638192401733257 30.983626760658808 6.0903431297920161 0.020169618568615877 0.015362322912551352 0.032306645938660949 0.36144803726347285 0.030400218354770914 0.22917715687071905 0.020367227552924194 0.021273893100442365 0.023592961370013654 0.038378280907636508 0.013376760296523571 0.40209676415543072 0.013051732792519033 2.3767080856196117 0.10016613549669262 0.020550506102154031 0.027656069578370079 0.35588870957144525 0.015788172837346792 0.015937996737193316 0.084302658564411104 0.014234959846362472 1.8458779988577587 0.027967597678070888 0.09066790051292628 0.011952003609621897 1.2512672939337783 0.88495855545625079
leaf_count=24319 45310 13715 42 7 26 816 38 512 17 47 51 84 4 894 4 5332 217 45 16 785 8 14 180 27 4173 63 204 5 1837 1248
internal_value=4.53569e-09 -0.0521766 -0.051927 -0.0514956 -0.0400444 -0.0515932 -0.0484061 -0.0502341 -0.0517422 -0.0494043 -0.0381676 -0.0504162 -0.0376741 -0.0513897 -0.0434053 -0.0519748 -0.051654 -0.0462485 -0.0333185 -0.051938 -0.0505383 -0.0453682 -0.04896 -0.0390336 -0.0522291 -0.0516647 -0.0497052 -0.0436179 -0.0523401 -0.0525093
internal_weight=62.0571 31.0735 12.299 6.2087 0.0524763 6.15622 0.27494 0.259577 5.88128 0.532138 0.0439602 0.488177 0.0346507 0.453527 0.05143 5.34915 2.97244 0.148373 0.0482066 2.82407 0.486152 0.130264 0.114476 0.030173 2.33791 0.492036 0.130588 0.0399196 18.7744 2.13623
internal_count=100040 54730 27326 13611 68 13543 557 550 12986 1101 68 1033 51 982 88 11885 6553 278 61 6275 1014 229 221 41 5261 1088 272 68 27404 3085
is_linear=0
shrinkage=0.05


Tree=25
num_leaves=31
num_cat=0
split_feature=8 8 6 6 7 6 6 7 5 5 7 7 3 11 1 3 1 11 1 3 6 5 1 1 7 6 6 3 11 11
split_gain=65.464 0.000489496 0.000876395 0.0026782 0.00199458 0.00107768 0.00504471 0.00447432 0.00395489 0.00552952 0.00266766 0.00568976 0.00280951 0.000726858 0.00521748 0.00158167 0.00239306 0.000537698 0.00627189 0.00026868 6.89198e-05 0.000246864 0.000796039 0.00276626 2.51245e-05 5.48959e-05 0.000822693 4.99033e-05 0.000164367 2.91938e-05
threshold=5.5000000000000009 2.5000000000000004 577.50000000000011 584.50000000000011 3.4500000000000006 1199.5000000000002 996.00000000000011 4.6500000000000012 1.5000000000000002 1.0000000180025095e-35 1.7500000000000002 1.6500000000000001 13.500000000000002 -18630.914999999997 19540.605000000007 2.5000000000000004 15845.85 -46579.609999999993 47272.700000000004 2.5000000000000004 599.50000000000011 2.5000000000000004 12728.495000000003 12348.970000000001 4.5500000000000007 722.50000000000011 730.50000000000011 1.5000000000000002 -3266.7749999999996 -35836.30999999999
decision_type=2 2 2 2 2 2 2 2 2 2 2 2 2 2 2 2 2 2 2 2 2 2 2 2 2 2 2 2 2 2
left_child=1 24 -3 4 -4 6 17 10 9 -9 11 12 -8 -12 15 16 -15 18 -5 -13 21 -19 23 -23 -1 -26 -27 28 -28 -29
right_child=-2 2 3 5 -6 -7 7 8 -10 -11 13 19 -14 14 -16 -17 -18 20 -20 -21 -22 22 -24 -25 25 26 27 29 -30 -31
leaf_value=-0.052090006596101551 0.052096726830923201 -0.05213154117512947 -0.05229598165787025 -0.017926968737817874 -0.031938950442533469 -0.052139846860265876 -0.05229969445065389 -0.052547391019135997 -0.052393001477603909 -0.022079376804061187 -0.052190004190896234 -0.022634133036182183 -0.03327533574102897 -0.052264052065311033 -0.014765965310919012 -0.052183574908594856 -0.024812408794645122 -0.052137223514158892 -0.052151249588767989 -0.030738640838404233 -0.052143032534297917 -0.052149588707158724 -0.052147917048448213 -0.022820802135305199 -0.052058824020330532 -0.061725606837631841 -0.052057540605774159 -0.052787651805767458 -0.058224181293502444 -0.05205460176350063
leaf_weight=16.215490937815055 30.193321708473377 5.9353511626832169 0.019651686336146557 0.014729618444107806 0.031035937659908086 2.597742137440946 0.10128793821786519 0.021104111423483118 0.031124081055168062 0.050586242869030684 0.28841143561294302 0.016898064583074301 0.02400618715910241 0.017842813889728859 0.010979845159454271 0.16329009001492523 0.01430248050019145 0.38080444751540277 0.14681715166079812 0.02590138086816296 1.9605893558764362 0.027693944372003898 0.092701340792700648 0.011328574270009995 1.2194803184247569 0.023908498580567428 0.038261918525677174 0.17485810868674889 0.015058633289299905 0.60835542227141559
leaf_count=24319 45310 13715 42 7 26 5977 218 41 64 36 652 12 28 39 4 370 12 882 339 31 4548 64 214 5 1837 7 58 249 11 923
internal_value=3.88688e-09 -0.0519483 -0.0516999 -0.0512763 -0.0398314 -0.0513731 -0.0507873 -0.047215 -0.0375099 -0.0310485 -0.0487202 -0.0432782 -0.0486547 -0.0505688 -0.0483036 -0.0501878 -0.0400499 -0.0518255 -0.0490307 -0.0275388 -0.0520081 -0.0514918 -0.0496261 -0.0436352 -0.052111 -0.0522746 -0.0525804 -0.052319 -0.0537991 -0.0522183
internal_weight=60.4729 30.2796 11.9842 6.04883 0.0506876 5.99814 3.4004 0.765735 0.102814 0.0716904 0.66292 0.168094 0.125294 0.494827 0.206415 0.195435 0.0321453 2.63466 0.161547 0.0427994 2.47312 0.512528 0.131724 0.0390225 18.2954 2.07992 0.860443 0.836534 0.0533206 0.783214
internal_count=100040 54730 27326 13611 68 13543 7566 1507 141 77 1366 289 246 1077 425 421 51 6059 346 43 5713 1165 283 69 27404 3085 1248 1241 69 1172
is_linear=0
shrinkage=0.05


Tree=26
num_leaves=31
num_cat=0
split_feature=8 8 6 6 7 11 1 3 7 3 7 11 11 4 4 6 6 0 3 6 4 4 3 11 6 5 1 1 7 6
split_gain=63.2256 0.000470555 0.000822439 0.00254428 0.00191224 0.00103547 0.00526013 0.00352498 0.00112398 0.00220935 0.0039036 0.00213601 0.00375409 0.0013002 0.0046592 0.000240247 0.00156261 0.00421136 0.00482734 0.000348634 0.00151658 0.00492855 0.00106236 0.00173985 9.24861e-05 0.000320314 0.00100347 0.00345577 2.2261e-05 4.89589e-05
threshold=5.5000000000000009 2.5000000000000004 577.50000000000011 584.50000000000011 3.4500000000000006 -46579.609999999993 47272.700000000004 1.5000000000000002 4.6500000000000012 1.5000000000000002 4.7500000000000009 -43881.349999999991 -44297.909999999996 85.500000000000014 81.500000000000014 1199.5000000000002 1129.0000000000002 2.5000000000000004 12.500000000000002 996.00000000000011 755.50000000000011 759.50000000000011 2.5000000000000004 -15085.244999999997 599.50000000000011 2.5000000000000004 12728.495000000003 12348.970000000001 4.5500000000000007 722.50000000000011
decision_type=2 2 2 2 2 2 2 2 2 2 2 2 2 2 2 2 2 2 2 2 2 2 2 2 2 2 2 2 2 2
left_child=1 28 -3 4 -4 6 -5 -8 15 10 -10 12 -11 14 -13 16 19 -18 -19 24 -21 -22 23 -23 25 -7 27 -27 -1 -30
right_child=-2 2 3 5 -6 8 7 -9 9 11 -12 13 -14 -15 -16 -17 17 18 -20 20 21 22 -24 -25 -26 26 -28 -29 29 -31
leaf_value=-0.051885349412361004 0.051889409464470196 -0.051920553044552245 -0.052068366429908301 -0.018414392189923932 -0.031813693213632137 -0.051925269213093345 -0.033177131707459541 -0.051952077203308716 -0.021076480083583225 -0.051958822559987343 -0.052025826273930736 -0.051998274666505286 -0.017241845493022479 -0.051957802916678134 -0.015607199408288986 -0.051927966314373943 -0.052009321941063336 -0.051978502232162063 -0.018766866823854336 -0.051975671315537111 -0.017802020765368295 -0.052192999711683397 -0.052041421131543399 -0.027035577762092186 -0.051930866748401021 -0.051936946433890435 -0.0519355410948013 -0.018693276883640083 -0.05185518962238627 -0.052354741454618249
leaf_weight=15.787724890920805 29.393795333569869 5.7790399173391034 0.019127379753626772 0.014119895349722245 0.029819627641700208 0.34302462168852921 0.028243445616681129 0.21769505384145305 0.018680775858228915 0.018847010040190071 0.022411124897189438 0.036530982906697318 0.013269086834043264 0.38212362688500434 0.011584758409298956 2.2558601046912372 0.095221566647523903 0.019522098562447354 0.024892310873838142 0.33829852030612517 0.014216793671948835 0.015017720492323861 0.080095856334082782 0.012671390897594392 1.7517775615269782 0.026543085579760373 0.086038908339105546 0.011081080621806905 1.1875252152676687 0.83557327796006564
leaf_count=24319 45310 13715 42 7 26 816 38 512 17 44 51 84 7 894 4 5332 217 45 16 785 8 31 180 10 4173 63 204 5 1837 1248
internal_value=5.82765e-10 -0.0517437 -0.0514968 -0.0510809 -0.0397288 -0.0511761 -0.0480921 -0.049796 -0.0513198 -0.0490665 -0.037956 -0.0500539 -0.0376152 -0.0509825 -0.0432364 -0.0515434 -0.0512356 -0.046079 -0.0333649 -0.0515044 -0.0502522 -0.045473 -0.0491228 -0.0406802 -0.0517642 -0.0511388 -0.0489571 -0.042146 -0.0519054 -0.0520615
internal_weight=58.8704 29.4766 11.6658 5.88671 0.048947 5.83777 0.260058 0.245938 5.57771 0.503447 0.0410919 0.462355 0.0321161 0.430239 0.0481157 5.07426 2.8184 0.139636 0.0444144 2.67877 0.4603 0.122002 0.107785 0.0276891 2.21847 0.466688 0.123663 0.0376242 17.8108 2.0231
internal_count=100040 54730 27326 13611 68 13543 557 550 12986 1101 68 1033 51 982 88 11885 6553 278 61 6275 1014 229 221 41 5261 1088 272 68 27404 3085
is_linear=0
shrinkage=0.05


Tree=27
num_leaves=31
num_cat=0
split_feature=8 8 6 6 7 6 6 7 5 5 7 7 11 3 6 7 11 1 3 4 6 5 1 1 7 6 6 3 11 11
split_gain=61.0515 0.000453239 0.000774929 0.00245684 0.00185694 0.000948378 0.00434565 0.00410445 0.00363379 0.00515501 0.00229337 0.00569172 0.00210767 0.00197871 0.000844606 0.00254691 0.000441915 0.00539377 0.000414248 0.00122307 7.93476e-05 0.000286152 0.000924587 0.00326362 2.02475e-05 4.45795e-05 0.000501349 4.19227e-05 0.000144875 2.45781e-05
threshold=5.5000000000000009 2.5000000000000004 577.50000000000011 584.50000000000011 3.4500000000000006 1199.5000000000002 996.00000000000011 4.6500000000000012 1.5000000000000002 1.0000000180025095e-35 1.7500000000000002 1.6500000000000001 -46357.419999999991 13.500000000000002 1198.5000000000002 4.1500000000000012 -46579.609999999993 47272.700000000004 2.5000000000000004 818.50000000000011 599.50000000000011 2.5000000000000004 12728.495000000003 12348.970000000001 4.5500000000000007 722.50000000000011 746.00000000000011 1.5000000000000002 -3266.7749999999996 -35836.30999999999
decision_type=2 2 2 2 2 2 2 2 2 2 2 2 2 2 2 2 2 2 2 2 2 2 2 2 2 2 2 2 2 2
left_child=1 24 -3 4 -4 6 16 10 9 -9 11 13 -13 -8 18 -16 17 -5 19 -12 21 -18 23 -23 -1 -26 -27 28 -28 -29
right_child=-2 2 3 5 -6 -7 7 8 -10 -11 14 12 -14 -15 15 -17 20 -19 -20 -21 -22 22 -24 -25 25 26 27 29 -30 -31
leaf_value=-0.051701416166536229 0.051703288972853138 -0.051731183376855172 -0.051864135467928354 -0.018715762304942752 -0.031582497654708462 -0.051738111391811496 -0.051868057552797699 -0.05206771698818629 -0.051947176467517467 -0.021651185630021781 -0.051795083979936124 -0.0078974672807393155 -0.03388359228102017 -0.035236881943661084 -0.051847573909851279 -0.029194883553226792 -0.051736004632082805 -0.051748799733255704 -0.051761153422093864 -0.037417176459092469 -0.051740551566619747 -0.051745772902887503 -0.051744418231422673 -0.018810840427422523 -0.051672357296227961 -0.0586444040374757 -0.05167044398722305 -0.052363642365151598 -0.057776006704079876 -0.051668092260423792
